{"learner":{"attributes":{"scikit_learn":"{\"_estimator_type\": \"classifier\"}"},"feature_names":["open","high","low","close","Volume","sma_20","sma_50","sma_200","daily_return","volatility","drawdown","rsi","macd","macd_signal","bb_upper","bb_lower","bb_width"],"feature_types":["float","float","float","float","float","float","float","float","float","float","float","float","float","float","float","float","float"],"gradient_booster":{"model":{"cats":{"enc":[],"feature_segments":[],"sorted_idx":[]},"gbtree_model_param":{"num_parallel_tree":"1","num_trees":"149"},"iteration_indptr":[0,1,2,3,4,5,6,7,8,9,10,11,12,13,14,15,16,17,18,19,20,21,22,23,24,25,26,27,28,29,30,31,32,33,34,35,36,37,38,39,40,41,42,43,44,45,46,47,48,49,50,51,52,53,54,55,56,57,58,59,60,61,62,63,64,65,66,67,68,69,70,71,72,73,74,75,76,77,78,79,80,81,82,83,84,85,86,87,88,89,90,91,92,93,94,95,96,97,98,99,100,101,102,103,104,105,106,107,108,109,110,111,112,113,114,115,116,117,118,119,120,121,122,123,124,125,126,127,128,129,130,131,132,133,134,135,136,137,138,139,140,141,142,143,144,145,146,147,148,149],"tree_info":[0,0,0,0,0,0,0,0,0,0,0,0,0,0,0,0,0,0,0,0,0,0,0,0,0,0,0,0,0,0,0,0,0,0,0,0,0,0,0,0,0,0,0,0,0,0,0,0,0,0,0,0,0,0,0,0,0,0,0,0,0,0,0,0,0,0,0,0,0,0,0,0,0,0,0,0,0,0,0,0,0,0,0,0,0,0,0,0,0,0,0,0,0,0,0,0,0,0,0,0,0,0,0,0,0,0,0,0,0,0,0,0,0,0,0,0,0,0,0,0,0,0,0,0,0,0,0,0,0,0,0,0,0,0,0,0,0,0,0,0,0,0,0,0,0,0,0,0,0],"trees":[{"base_weights":[3.4783257E-4,4.1173598E-1,-2.3207991E-1,6.0161626E-1,1.5452127E-1,-4.740257E-2,-6.8263626E-1,8.6349845E-3,2.1679271E-2,-9.238116E-3,4.1996E-3,-2.1466934E-3,8.404882E-3,-3.8623675E-3,-1.5008217E-2],"categories":[],"categories_nodes":[],"categories_segments":[],"categories_sizes":[],"default_left":[0,0,0,0,0,0,0,0,0,0,0,0,0,0,0],"id":0,"left_children":[1,3,5,7,9,11,13,-1,-1,-1,-1,-1,-1,-1,-1],"loss_changes":[2.8282245E2,5.15755E1,1.565914E2,3.5730927E1,3.0186981E1,5.8201874E1,5.0389297E1,0E0,0E0,0E0,0E0,0E0,0E0,0E0,0E0],"parents":[2147483647,0,0,1,1,2,2,3,3,4,4,5,5,6,6],"right_children":[2,4,6,8,10,12,14,-1,-1,-1,-1,-1,-1,-1,-1],"split_conditions":[-2.0455885E-1,-2.9695684E-1,3.2423123E2,3.1698585E0,1.5282353E1,1.183238E8,5.1879483E-1,8.6349845E-3,2.1679271E-2,-9.238116E-3,4.1996E-3,-2.1466934E-3,8.404882E-3,-3.8623675E-3,-1.5008217E-2],"split_indices":[10,10,3,12,2,4,13,0,0,0,0,0,0,0,0],"split_type":[0,0,0,0,0,0,0,0,0,0,0,0,0,0,0],"sum_hessian":[2.9543452E3,1.0672816E3,1.8870636E3,6.116622E2,4.556195E2,1.3403735E3,5.4669006E2,5.4303186E2,6.863031E1,5.2494648E1,4.0312488E2,1.1711194E3,1.6925421E2,1.7277132E2,3.7391873E2],"tree_param":{"num_deleted":"0","num_feature":"17","num_nodes":"15","size_leaf_vector":"1"}},{"base_weights":[5.496957E-3,-6.239631E-1,1.805459E-1,-1.5824127E0,-5.0457984E-1,6.165121E-1,2.9161992E-2,-1.0695397E-2,-3.03385E-2,-2.57644E-3,-1.1796329E-2,9.042134E-3,2.115074E-2,8.977477E-4,-1.3529019E-2],"categories":[],"categories_nodes":[],"categories_segments":[],"categories_sizes":[],"default_left":[0,0,0,0,0,0,0,0,0,0,0,0,0,0,0],"id":1,"left_children":[1,3,5,7,9,11,13,-1,-1,-1,-1,-1,-1,-1,-1],"loss_changes":[3.2919125E2,7.2073715E1,1.5401543E2,1.1566971E1,3.8993088E1,2.9018433E1,3.427683E1,0E0,0E0,0E0,0E0,0E0,0E0,0E0,0E0],"parents":[2147483647,0,0,1,1,2,2,3,3,4,4,5,5,6,6],"right_children":[2,4,6,8,10,12,14,-1,-1,-1,-1,-1,-1,-1,-1],"split_conditions":[1.2318682E-2,6.920592E-3,-2.9973045E-1,2.7781067E2,3.55668E-1,3.1698585E0,4.4512817E2,-1.0695397E-2,-3.03385E-2,-2.57644E-3,-1.1796329E-2,9.042134E-3,2.115074E-2,8.977477E-4,-1.3529019E-2],"split_indices":[9,9,10,1,12,12,15,0,0,0,0,0,0,0,0],"split_type":[0,0,0,0,0,0,0,0,0,0,0,0,0,0,0],"sum_hessian":[2.9879814E3,6.4868896E2,2.3392925E3,6.971071E1,5.789783E2,6.009127E2,1.7383798E3,1.4274553E1,5.5436157E1,2.0791081E2,3.7106747E2,5.3602185E2,6.489085E1,1.691308E3,4.707171E1],"tree_param":{"num_deleted":"0","num_feature":"17","num_nodes":"15","size_leaf_vector":"1"}},{"base_weights":[-1.346388E-2,-7.0549315E-1,1.3407348E-1,-1.2432052E0,-4.7908765E-1,-3.9960537E-2,3.742205E-1,1.1704334E-2,-2.2759788E-2,2.2614881E-2,-8.721236E-3,5.7278754E-4,-5.9201648E-3,2.7744638E-2,5.867625E-3],"categories":[],"categories_nodes":[],"categories_segments":[],"categories_sizes":[],"default_left":[0,0,0,0,0,0,0,0,0,0,0,0,0,0,0],"id":2,"left_children":[1,3,5,7,9,11,13,-1,-1,-1,-1,-1,-1,-1,-1],"loss_changes":[3.0249774E2,6.1590088E1,1.02145996E2,3.2634064E1,2.5511017E1,3.268177E1,3.265291E1,0E0,0E0,0E0,0E0,0E0,0E0,0E0,0E0],"parents":[2147483647,0,0,1,1,2,2,3,3,4,4,5,5,6,6],"right_children":[2,4,6,8,10,12,14,-1,-1,-1,-1,-1,-1,-1,-1],"split_conditions":[1.1543463E-2,8.363773E-3,2.1177635E-2,-1.168989E0,-5.677792E0,3.244395E2,1.3041121E1,1.1704334E-2,-2.2759788E-2,2.2614881E-2,-8.721236E-3,5.7278754E-4,-5.9201648E-3,2.7744638E-2,5.867625E-3],"split_indices":[9,9,9,12,13,0,5,0,0,0,0,0,0,0,0],"split_type":[0,0,0,0,0,0,0,0,0,0,0,0,0,0,0],"sum_hessian":[2.9568823E3,5.196566E2,2.4372258E3,1.5161057E2,3.6804605E2,1.4120754E3,1.0251504E3,7.1706285E0,1.4443993E2,6.317278E0,3.6172876E2,1.1399166E3,2.7215884E2,1.909708E1,1.0060533E3],"tree_param":{"num_deleted":"0","num_feature":"17","num_nodes":"15","size_leaf_vector":"1"}},{"base_weights":[1.1988121E-2,5.5600005E-1,-1.3201855E-1,8.7528884E-1,4.4784907E-1,-3.255437E-2,-6.645159E-1,-7.6512545E-3,1.6281659E-2,8.267929E-3,-8.159716E-3,8.74774E-4,-5.0486503E-3,-3.6183086E-3,-1.9724755E-2],"categories":[],"categories_nodes":[],"categories_segments":[],"categories_sizes":[],"default_left":[0,0,0,0,0,0,0,0,0,0,0,0,0,0,0],"id":3,"left_children":[1,3,5,7,9,11,13,-1,-1,-1,-1,-1,-1,-1,-1],"loss_changes":[2.3407687E2,2.0285736E1,1.2444624E2,1.9306625E1,1.8710098E1,4.4941257E1,8.280403E1,0E0,0E0,0E0,0E0,0E0,0E0,0E0,0E0],"parents":[2147483647,0,0,1,1,2,2,3,3,4,4,5,5,6,6],"right_children":[2,4,6,8,10,12,14,-1,-1,-1,-1,-1,-1,-1,-1],"split_conditions":[-2.9695684E-1,-5.66822E-1,-1.618261E-2,2.1183283E1,4.8474336E-1,2.9204285E2,3.1516794E2,-7.6512545E-3,1.6281659E-2,8.267929E-3,-8.159716E-3,8.74774E-4,-5.0486503E-3,-3.6183086E-3,-1.9724755E-2],"split_indices":[10,10,10,11,16,7,14,0,0,0,0,0,0,0,0],"split_type":[0,0,0,0,0,0,0,0,0,0,0,0,0,0,0],"sum_hessian":[2.982148E3,6.244728E2,2.357675E3,1.5443816E2,4.700346E2,1.9886543E3,3.6902075E2,8.98064E0,1.4545752E2,4.50931E2,1.9103594E1,1.5093057E3,4.7934863E2,1.9649878E2,1.7252199E2],"tree_param":{"num_deleted":"0","num_feature":"17","num_nodes":"15","size_leaf_vector":"1"}},{"base_weights":[-0E0,-6.093567E-1,1.7248103E-1,-1.4968828E0,-4.7686866E-1,5.513691E-1,4.18079E-2,-1.3743127E-2,-2.9421996E-2,1.4748049E-2,-8.776425E-3,7.891948E-3,2.0579187E-2,-9.847297E-5,1.014603E-2],"categories":[],"categories_nodes":[],"categories_segments":[],"categories_sizes":[],"default_left":[0,0,0,0,0,0,0,0,0,0,0,0,0,0,0],"id":4,"left_children":[1,3,5,7,9,11,13,-1,-1,-1,-1,-1,-1,-1,-1],"loss_changes":[3.1210822E2,7.491574E1,1.1420907E2,1.0821793E1,3.3615448E1,3.1386047E1,4.63407E1,0E0,0E0,0E0,0E0,0E0,0E0,0E0,0E0],"parents":[2147483647,0,0,1,1,2,2,3,3,4,4,5,5,6,6],"right_children":[2,4,6,8,10,12,14,-1,-1,-1,-1,-1,-1,-1,-1],"split_conditions":[1.2318682E-2,7.0360303E-3,-2.9973045E-1,1.6367021E0,-3.8631728E0,3.1698585E0,2.4545766E-1,-1.3743127E-2,-2.9421996E-2,1.4748049E-2,-8.776425E-3,7.891948E-3,2.0579187E-2,-9.847297E-5,1.014603E-2],"split_indices":[9,9,10,12,12,12,16,0,0,0,0,0,0,0,0],"split_type":[0,0,0,0,0,0,0,0,0,0,0,0,0,0,0],"sum_hessian":[2.9680305E3,6.539283E2,2.3141023E3,8.278551E1,5.7114276E2,5.912064E2,1.7228959E3,2.395064E1,5.883487E1,1.6529467E1,5.546133E2,5.278994E2,6.330704E1,1.5875983E3,1.352977E2],"tree_param":{"num_deleted":"0","num_feature":"17","num_nodes":"15","size_leaf_vector":"1"}},{"base_weights":[9.104362E-3,1.2637211E-1,-5.519108E-1,3.8701203E-2,4.6348694E-1,-2.560648E-2,-8.5042083E-1,-6.6997563E-3,1.3331197E-3,1.6717002E-2,6.2060477E-3,1.3878733E-2,-2.9728876E-3,-7.584882E-3,-1.9198086E-2],"categories":[],"categories_nodes":[],"categories_segments":[],"categories_sizes":[],"default_left":[0,0,0,0,0,0,0,0,0,0,0,0,0,0,0],"id":5,"left_children":[1,3,5,7,9,11,13,-1,-1,-1,-1,-1,-1,-1,-1],"loss_changes":[1.9662769E2,7.284015E1,8.0539734E1,3.4367516E1,2.4405983E1,2.3844526E1,3.6216675E1,0E0,0E0,0E0,0E0,0E0,0E0,0E0,0E0],"parents":[2147483647,0,0,1,1,2,2,3,3,4,4,5,5,6,6],"right_children":[2,4,6,8,10,12,14,-1,-1,-1,-1,-1,-1,-1,-1],"split_conditions":[3.34302E2,8.757492E7,5.8082694E-1,1.6348225E1,-3.1854649E0,-9.208338E0,3.4322E6,-6.6997563E-3,1.3331197E-3,1.6717002E-2,6.2060477E-3,1.3878733E-2,-2.9728876E-3,-7.584882E-3,-1.9198086E-2],"split_indices":[2,4,13,15,13,13,4,0,0,0,0,0,0,0,0],"split_type":[0,0,0,0,0,0,0,0,0,0,0,0,0,0,0],"sum_hessian":[2.9907336E3,2.475365E3,5.153687E2,1.9670316E3,5.0833337E2,1.877627E2,3.2760602E2,1.6426291E2,1.8027687E3,7.550207E1,4.328313E2,2.688947E1,1.6087323E2,1.3883987E2,1.8876614E2],"tree_param":{"num_deleted":"0","num_feature":"17","num_nodes":"15","size_leaf_vector":"1"}},{"base_weights":[-0E0,-5.946131E-1,1.679911E-1,-1.4103293E0,-4.791184E-1,3.840973E-2,3.981238E-1,-8.394228E-3,-2.7580248E-2,-2.8763143E-3,-1.1224735E-2,5.5433204E-3,-8.574066E-4,8.174673E-3,2.2187595E-4],"categories":[],"categories_nodes":[],"categories_segments":[],"categories_sizes":[],"default_left":[0,0,0,0,0,0,0,0,0,0,0,0,0,0,0],"id":6,"left_children":[1,3,5,7,9,11,13,-1,-1,-1,-1,-1,-1,-1,-1],"loss_changes":[2.969895E2,5.96736E1,6.8899635E1,1.400322E1,3.237938E1,3.869794E1,2.7348587E1,0E0,0E0,0E0,0E0,0E0,0E0,0E0,0E0],"parents":[2147483647,0,0,1,1,2,2,3,3,4,4,5,5,6,6],"right_children":[2,4,6,8,10,12,14,-1,-1,-1,-1,-1,-1,-1,-1],"split_conditions":[1.2318682E-2,7.0360303E-3,2.3141641E-2,2.7729404E2,-2.5444636E-3,4.301583E1,2.5750455E2,-8.394228E-3,-2.7580248E-2,-2.8763143E-3,-1.1224735E-2,5.5433204E-3,-8.574066E-4,8.174673E-3,2.2187595E-4],"split_indices":[9,9,9,0,8,14,7,0,0,0,0,0,0,0,0],"split_type":[0,0,0,0,0,0,0,0,0,0,0,0,0,0,0],"sum_hessian":[2.973224E3,6.536262E2,2.319598E3,7.87933E1,5.7483295E2,1.4866796E3,8.3291846E2,1.6807438E1,6.198586E1,2.1823845E2,3.5659448E2,3.5075723E2,1.1359224E3,6.788624E2,1.5405603E2],"tree_param":{"num_deleted":"0","num_feature":"17","num_nodes":"15","size_leaf_vector":"1"}},{"base_weights":[-2.0364534E-2,1.0907686E-1,-5.5394715E-1,-5.7901633E-3,4.709716E-1,9.732125E-1,-6.4418685E-1,-9.7876545E-3,7.841651E-4,7.1555553E-3,1.7817328E-2,2.7660277E-2,-1.0160556E-3,-5.570333E-3,-1.439993E-2],"categories":[],"categories_nodes":[],"categories_segments":[],"categories_sizes":[],"default_left":[0,0,0,0,0,0,0,0,0,0,0,0,0,0,0],"id":7,"left_children":[1,3,5,7,9,11,13,-1,-1,-1,-1,-1,-1,-1,-1],"loss_changes":[2.0600795E2,9.99167E1,8.075639E1,5.493783E1,1.4422394E1,2.3537703E1,3.5081116E1,0E0,0E0,0E0,0E0,0E0,0E0,0E0,0E0],"parents":[2147483647,0,0,1,1,2,2,3,3,4,4,5,5,6,6],"right_children":[2,4,6,8,10,12,14,-1,-1,-1,-1,-1,-1,-1,-1],"split_conditions":[3.1988663E2,7.826534E7,-9.208338E0,1.6348225E1,6.47649E0,4.4674573E2,-2.2406986E-3,-9.7876545E-3,7.841651E-4,7.1555553E-3,1.7817328E-2,2.7660277E-2,-1.0160556E-3,-5.570333E-3,-1.439993E-2],"split_indices":[2,4,13,15,12,3,8,0,0,0,0,0,0,0,0],"split_type":[0,0,0,0,0,0,0,0,0,0,0,0,0,0,0],"sum_hessian":[2.9763235E3,2.3949792E3,5.8134406E2,1.8174023E3,5.7757697E2,3.1412048E1,5.49932E2,1.5171707E2,1.6656853E3,5.3744086E2,4.01361E1,1.9095184E1,1.2316863E1,2.2212871E2,3.2780328E2],"tree_param":{"num_deleted":"0","num_feature":"17","num_nodes":"15","size_leaf_vector":"1"}},{"base_weights":[8.076336E-3,5.593268E-1,-1.329554E-1,4.8650703E-1,1.1290011E0,-1.0388016E-2,-5.101936E-1,4.292517E-3,1.0993559E-2,2.8517205E-2,5.528815E-3,-1.1978893E-3,8.138452E-3,3.7325865E-3,-1.2239641E-2],"categories":[],"categories_nodes":[],"categories_segments":[],"categories_sizes":[],"default_left":[0,0,0,0,0,0,0,0,0,0,0,0,0,0,0],"id":8,"left_children":[1,3,5,7,9,11,13,-1,-1,-1,-1,-1,-1,-1,-1],"loss_changes":[2.3232576E2,2.3576126E1,1.09497635E2,1.9997208E1,2.8208916E1,5.335534E1,9.191243E1,0E0,0E0,0E0,0E0,0E0,0E0,0E0,0E0],"parents":[2147483647,0,0,1,1,2,2,3,3,4,4,5,5,6,6],"right_children":[2,4,6,8,10,12,14,-1,-1,-1,-1,-1,-1,-1,-1],"split_conditions":[-2.9973045E-1,3.0469193E0,3.2632703E2,4.95716E7,8.468716E0,1.214346E8,-1.6422147E-1,4.292517E-3,1.0993559E-2,2.8517205E-2,5.528815E-3,-1.1978893E-3,8.138452E-3,3.7325865E-3,-1.2239641E-2],"split_indices":[10,12,3,4,12,4,10,0,0,0,0,0,0,0,0],"split_type":[0,0,0,0,0,0,0,0,0,0,0,0,0,0,0],"sum_hessian":[2.9825186E3,6.0787695E2,2.3746416E3,5.418586E2,6.601838E1,1.7945048E3,5.801369E2,2.2784784E2,3.140107E2,3.762552E1,2.8392859E1,1.6000154E3,1.9448938E2,1.3109445E2,4.4904245E2],"tree_param":{"num_deleted":"0","num_feature":"17","num_nodes":"15","size_leaf_vector":"1"}},{"base_weights":[-0E0,-5.856788E-1,1.6244517E-1,-1.6277105E0,-5.007322E-1,5.1507306E-1,3.7720274E-2,-1.0000619E-2,-2.9898794E-2,-1.5711617E-3,-1.0378195E-2,9.21218E-3,-9.020827E-3,1.6945587E-3,-4.1385423E-3],"categories":[],"categories_nodes":[],"categories_segments":[],"categories_sizes":[],"default_left":[0,0,0,0,0,0,0,0,0,0,0,0,0,0,0],"id":9,"left_children":[1,3,5,7,9,11,13,-1,-1,-1,-1,-1,-1,-1,-1],"loss_changes":[2.822569E2,5.470404E1,1.0170714E2,4.321083E0,2.7295273E1,1.9860245E1,3.0388845E1,0E0,0E0,0E0,0E0,0E0,0E0,0E0,0E0],"parents":[2147483647,0,0,1,1,2,2,3,3,4,4,5,5,6,6],"right_children":[2,4,6,8,10,12,14,-1,-1,-1,-1,-1,-1,-1,-1],"split_conditions":[1.2318682E-2,6.611126E-3,-2.9973045E-1,4.0694378E1,-7.107974E-3,6.354571E-2,2.9341553E2,-1.0000619E-2,-2.9898794E-2,-1.5711617E-3,-1.0378195E-2,9.21218E-3,-9.020827E-3,1.6945587E-3,-4.1385423E-3],"split_indices":[9,9,10,11,8,9,7,0,0,0,0,0,0,0,0],"split_type":[0,0,0,0,0,0,0,0,0,0,0,0,0,0,0],"sum_hessian":[2.963356E3,6.431569E2,2.320199E3,4.635255E1,5.968044E2,6.0392554E2,1.7162734E3,6.9167438E0,3.9435806E1,1.3229715E2,4.6450726E2,5.878743E2,1.60512E1,1.4075099E3,3.087636E2],"tree_param":{"num_deleted":"0","num_feature":"17","num_nodes":"15","size_leaf_vector":"1"}},{"base_weights":[1.2733006E-2,-4.4489163E-1,2.2379936E-1,-1.3131707E0,-3.4433597E-1,5.981397E-1,6.949211E-2,-8.009538E-3,-2.5690524E-2,4.6263733E-3,-6.8283076E-3,8.793115E-3,1.9081177E-2,2.655854E-3,-3.2867908E-3],"categories":[],"categories_nodes":[],"categories_segments":[],"categories_sizes":[],"default_left":[0,0,0,0,0,0,0,0,0,0,0,0,0,0,0],"id":10,"left_children":[1,3,5,7,9,11,13,-1,-1,-1,-1,-1,-1,-1,-1],"loss_changes":[2.869777E2,8.0230316E1,1.1707652E2,1.4725433E1,3.158828E1,2.2588943E1,3.352932E1,0E0,0E0,0E0,0E0,0E0,0E0,0E0,0E0],"parents":[2147483647,0,0,1,1,2,2,3,3,4,4,5,5,6,6],"right_children":[2,4,6,8,10,12,14,-1,-1,-1,-1,-1,-1,-1,-1],"split_conditions":[1.4176527E-2,7.318482E-3,-2.9973045E-1,2.7729404E2,-1.442858E0,2.1524284E0,2.5485945E2,-8.009538E-3,-2.5690524E-2,4.6263733E-3,-6.8283076E-3,8.793115E-3,1.9081177E-2,2.655854E-3,-3.2867908E-3],"split_indices":[9,9,10,0,13,13,15,0,0,0,0,0,0,0,0],"split_type":[0,0,0,0,0,0,0,0,0,0,0,0,0,0,0],"sum_hessian":[2.9703516E3,9.361814E2,2.0341703E3,9.507663E1,8.411048E2,5.915587E2,1.4426116E3,2.0332493E1,7.474414E1,7.332549E1,7.677793E2,5.197163E2,7.184239E1,1.0848304E3,3.5778104E2],"tree_param":{"num_deleted":"0","num_feature":"17","num_nodes":"15","size_leaf_vector":"1"}},{"base_weights":[6.89745E-3,-5.562392E-1,1.6392753E-1,-1.0728984E0,-3.8791287E-1,5.2375054E-1,3.517289E-2,-1.9722806E-2,4.7045728E-4,-1.2980797E-3,-9.362034E-3,9.50201E-3,-1.4066112E-2,-1.8074186E-4,9.987342E-3],"categories":[],"categories_nodes":[],"categories_segments":[],"categories_sizes":[],"default_left":[0,0,0,0,0,0,0,0,0,0,0,0,0,0,0],"id":11,"left_children":[1,3,5,7,9,11,13,-1,-1,-1,-1,-1,-1,-1,-1],"loss_changes":[2.6218112E2,5.476323E1,1.07164536E2,1.7347015E1,2.495716E1,3.285411E1,4.4119118E1,0E0,0E0,0E0,0E0,0E0,0E0,0E0,0E0],"parents":[2147483647,0,0,1,1,2,2,3,3,4,4,5,5,6,6],"right_children":[2,4,6,8,10,12,14,-1,-1,-1,-1,-1,-1,-1,-1],"split_conditions":[1.2318682E-2,8.363773E-3,-2.9973045E-1,6.4218535E0,2.716257E-1,6.354571E-2,2.5182626E-1,-1.9722806E-2,4.7045728E-4,-1.2980797E-3,-9.362034E-3,9.50201E-3,-1.4066112E-2,-1.8074186E-4,9.987342E-3],"split_indices":[9,9,10,13,12,9,16,0,0,0,0,0,0,0,0],"split_type":[0,0,0,0,0,0,0,0,0,0,0,0,0,0,0],"sum_hessian":[2.965522E3,6.4508E2,2.320442E3,1.5606929E2,4.890107E2,6.0924066E2,1.7112013E3,1.4407935E2,1.1989936E1,1.726629E2,3.163478E2,5.9323334E2,1.6007328E1,1.580798E3,1.3040321E2],"tree_param":{"num_deleted":"0","num_feature":"17","num_nodes":"15","size_leaf_vector":"1"}},{"base_weights":[2.153226E-3,-4.0763178E-1,1.8686901E-1,-1.0263202E0,-2.7949286E-1,5.317998E-1,3.4584608E-2,-6.712006E-3,-2.1879297E-2,1.7766243E-4,-8.1799235E-3,7.489371E-3,1.953207E-2,2.2498558E-3,-4.5056143E-3],"categories":[],"categories_nodes":[],"categories_segments":[],"categories_sizes":[],"default_left":[0,0,0,0,0,0,0,0,0,0,0,0,0,0,0],"id":12,"left_children":[1,3,5,7,9,11,13,-1,-1,-1,-1,-1,-1,-1,-1],"loss_changes":[2.252976E2,7.2088425E1,1.0749953E2,2.4996094E1,4.6025257E1,3.2933975E1,4.2444843E1,0E0,0E0,0E0,0E0,0E0,0E0,0E0,0E0],"parents":[2147483647,0,0,1,1,2,2,3,3,4,4,5,5,6,6],"right_children":[2,4,6,8,10,12,14,-1,-1,-1,-1,-1,-1,-1,-1],"split_conditions":[1.4041627E-2,8.363773E-3,-2.893808E-1,2.8354773E2,3.55668E-1,2.1524284E0,2.6311563E2,-6.712006E-3,-2.1879297E-2,1.7766243E-4,-8.1799235E-3,7.489371E-3,1.953207E-2,2.2498558E-3,-4.5056143E-3],"split_indices":[9,9,10,3,12,13,7,0,0,0,0,0,0,0,0],"split_type":[0,0,0,0,0,0,0,0,0,0,0,0,0,0,0],"sum_hessian":[2.9761138E3,9.2316486E2,2.052949E3,1.5615631E2,7.6700854E2,6.265763E2,1.4263727E3,4.8492752E1,1.0766356E2,3.1689163E2,4.501169E2,5.5186255E2,7.471374E1,1.0767042E3,3.496685E2],"tree_param":{"num_deleted":"0","num_feature":"17","num_nodes":"15","size_leaf_vector":"1"}},{"base_weights":[4.2589097E-3,1.2620477E-1,-4.902394E-1,7.861504E-3,3.9708108E-1,5.1175904E-1,-5.772637E-1,-9.896905E-3,1.0083433E-3,2.2540245E-2,6.3294936E-3,2.3307947E-2,-1.3501862E-3,-2.3728784E-3,-1.2190085E-2],"categories":[],"categories_nodes":[],"categories_segments":[],"categories_sizes":[],"default_left":[0,0,0,0,0,0,0,0,0,0,0,0,0,0,0],"id":13,"left_children":[1,3,5,7,9,11,13,-1,-1,-1,-1,-1,-1,-1,-1],"loss_changes":[1.7919176E2,7.627831E1,5.1609375E1,5.1017075E1,1.32992935E1,2.5130367E1,3.361502E1,0E0,0E0,0E0,0E0,0E0,0E0,0E0,0E0],"parents":[2147483647,0,0,1,1,2,2,3,3,4,4,5,5,6,6],"right_children":[2,4,6,8,10,12,14,-1,-1,-1,-1,-1,-1,-1,-1],"split_conditions":[3.1988663E2,6.35634E7,-7.9263606E0,1.6348225E1,1.260186E1,1.3057128E-1,-7.107974E-3,-9.896905E-3,1.0083433E-3,2.2540245E-2,6.3294936E-3,2.3307947E-2,-1.3501862E-3,-2.3728784E-3,-1.2190085E-2],"split_indices":[2,4,12,15,2,16,8,0,0,0,0,0,0,0,0],"split_type":[0,0,0,0,0,0,0,0,0,0,0,0,0,0,0],"sum_hessian":[2.9732947E3,2.3868594E3,5.864354E2,1.663635E3,7.2322437E2,4.581581E1,5.406196E2,1.3163028E2,1.5320048E3,1.4384737E1,7.088396E2,1.8403784E1,2.7412027E1,1.3645438E2,4.0416528E2],"tree_param":{"num_deleted":"0","num_feature":"17","num_nodes":"15","size_leaf_vector":"1"}},{"base_weights":[-1.8775124E-2,-5.5226094E-1,1.3177234E-1,-1.0635399E0,-3.8967147E-1,-2.0934336E-3,3.053754E-1,-1.9473696E-2,3.282559E-3,-1.4954946E-3,-9.563806E-3,1.1463558E-3,-5.803795E-3,2.5116695E-2,4.7398666E-3],"categories":[],"categories_nodes":[],"categories_segments":[],"categories_sizes":[],"default_left":[0,0,0,0,0,0,0,0,0,0,0,0,0,0,0],"id":14,"left_children":[1,3,5,7,9,11,13,-1,-1,-1,-1,-1,-1,-1,-1],"loss_changes":[2.3906178E2,5.3045868E1,5.4068275E1,1.8657974E1,2.6148094E1,3.1501574E1,2.7712006E1,0E0,0E0,0E0,0E0,0E0,0E0,0E0,0E0],"parents":[2147483647,0,0,1,1,2,2,3,3,4,4,5,5,6,6],"right_children":[2,4,6,8,10,12,14,-1,-1,-1,-1,-1,-1,-1,-1],"split_conditions":[1.2318682E-2,8.363773E-3,2.1177635E-2,6.9959707E0,3.2190964E-1,3.2834543E2,1.3041121E1,-1.9473696E-2,3.282559E-3,-1.4954946E-3,-9.563806E-3,1.1463558E-3,-5.803795E-3,2.5116695E-2,4.7398666E-3],"split_indices":[9,9,9,12,12,3,5,0,0,0,0,0,0,0,0],"split_type":[0,0,0,0,0,0,0,0,0,0,0,0,0,0,0],"sum_hessian":[2.9709446E3,6.5417786E2,2.3167666E3,1.5535338E2,4.9882446E2,1.3065647E3,1.0102019E3,1.4553032E2,9.823068E0,1.8668457E2,3.121399E2,1.0835564E3,2.230083E2,1.862218E1,9.915798E2],"tree_param":{"num_deleted":"0","num_feature":"17","num_nodes":"15","size_leaf_vector":"1"}},{"base_weights":[1.545927E-2,-4.1241387E-1,1.9546045E-1,-2.7776908E-2,-3.383451E-1,2.7783465E-1,-1.6976637E-1,-1.2715975E-3,-8.564912E-3,2.6626889E-2,4.376186E-3,-1.5364084E-3,-1.7922921E-2],"categories":[],"categories_nodes":[],"categories_segments":[],"categories_sizes":[],"default_left":[0,0,0,0,0,0,0,0,0,0,0,0,0],"id":15,"left_children":[1,3,5,-1,7,9,11,-1,-1,-1,-1,-1,-1],"loss_changes":[2.2875671E2,7.835916E1,6.3093185E1,0E0,3.6539192E1,3.9539703E1,2.6129536E1,0E0,0E0,0E0,0E0,0E0,0E0],"parents":[2147483647,0,0,1,1,2,2,4,4,5,5,6,6],"right_children":[2,4,6,-1,8,10,12,-1,-1,-1,-1,-1,-1],"split_conditions":[1.3864597E-2,6.611126E-3,2.5668314E2,-2.7776908E-2,3.55668E-1,1.3041121E1,4.4512817E2,-1.2715975E-3,-8.564912E-3,2.6626889E-2,4.376186E-3,-1.5364084E-3,-1.7922921E-2],"split_indices":[9,9,15,0,12,5,15,0,0,0,0,0,0],"split_type":[0,0,0,0,0,0,0,0,0,0,0,0,0],"sum_hessian":[2.969752E3,8.77871E2,2.0918809E3,4.7876053E1,8.299949E2,1.7086013E3,3.8327954E2,3.2700827E2,5.029866E2,2.2205627E1,1.6863958E3,3.5401767E2,2.9261879E1],"tree_param":{"num_deleted":"0","num_feature":"17","num_nodes":"13","size_leaf_vector":"1"}},{"base_weights":[5.121718E-3,-5.1421916E-1,1.4736356E-1,-3.1674635E-1,-9.67599E-1,4.9641228E-1,2.2686558E-2,-1.25702955E-2,-3.3438304E-3,-1.9901754E-2,-6.181643E-4,-1.4673337E-2,8.8101085E-3,-5.0895236E-4,7.76852E-3],"categories":[],"categories_nodes":[],"categories_segments":[],"categories_sizes":[],"default_left":[0,0,0,0,0,0,0,0,0,0,0,0,0,0,0],"id":16,"left_children":[1,3,5,7,9,11,13,-1,-1,-1,-1,-1,-1,-1,-1],"loss_changes":[2.190468E2,5.5856827E1,1.0109534E2,2.188546E1,3.6920532E1,2.1668396E1,4.0079166E1,0E0,0E0,0E0,0E0,0E0,0E0,0E0,0E0],"parents":[2147483647,0,0,1,1,2,2,3,3,4,4,5,5,6,6],"right_children":[2,4,6,8,10,12,14,-1,-1,-1,-1,-1,-1,-1,-1],"split_conditions":[1.2318682E-2,-1.618261E-2,-2.9973045E-1,3.696415E1,6.47649E0,1.36171775E-2,1.344733E8,-1.25702955E-2,-3.3438304E-3,-1.9901754E-2,-6.181643E-4,-1.4673337E-2,8.8101085E-3,-5.0895236E-4,7.76852E-3],"split_indices":[9,10,10,7,12,9,4,0,0,0,0,0,0,0,0],"split_type":[0,0,0,0,0,0,0,0,0,0,0,0,0,0,0],"sum_hessian":[2.966235E3,6.3611444E2,2.3301206E3,4.4546048E2,1.9065395E2,6.109702E2,1.7191505E3,9.416511E1,3.5129535E2,1.5452502E2,3.6128918E1,1.0076946E1,6.0089325E2,1.5335045E3,1.8564601E2],"tree_param":{"num_deleted":"0","num_feature":"17","num_nodes":"15","size_leaf_vector":"1"}},{"base_weights":[-2.8338974E-2,-5.9504026E-1,8.748904E-2,-1.0547962E0,-4.2120647E-1,4.5405656E-1,-4.1273013E-2,-7.8254575E-3,-2.1736924E-2,-3.602892E-5,-1.0443187E-2,6.394163E-3,1.7301163E-2,-1.4577635E-3,8.664502E-3],"categories":[],"categories_nodes":[],"categories_segments":[],"categories_sizes":[],"default_left":[0,0,0,0,0,0,0,0,0,0,0,0,0,0,0],"id":17,"left_children":[1,3,5,7,9,11,13,-1,-1,-1,-1,-1,-1,-1,-1],"loss_changes":[1.9274922E2,3.835762E1,1.151392E2,1.676596E1,2.9770767E1,2.5857178E1,4.480045E1,0E0,0E0,0E0,0E0,0E0,0E0,0E0,0E0],"parents":[2147483647,0,0,1,1,2,2,3,3,4,4,5,5,6,6],"right_children":[2,4,6,8,10,12,14,-1,-1,-1,-1,-1,-1,-1,-1],"split_conditions":[1.141649E-2,8.040891E-3,-2.915599E-1,2.86711E2,5.171937E-2,3.1698585E0,2.4545766E-1,-7.8254575E-3,-2.1736924E-2,-3.602892E-5,-1.0443187E-2,6.394163E-3,1.7301163E-2,-1.4577635E-3,8.664502E-3],"split_indices":[9,9,10,1,16,12,16,0,0,0,0,0,0,0,0],"split_type":[0,0,0,0,0,0,0,0,0,0,0,0,0,0,0],"sum_hessian":[2.9293276E3,4.9730078E2,2.4320269E3,1.3383342E2,3.6346735E2,6.3281067E2,1.7992162E3,3.9603703E1,9.422971E1,1.1788396E2,2.455834E2,5.618457E2,7.096494E1,1.6659014E3,1.3331487E2],"tree_param":{"num_deleted":"0","num_feature":"17","num_nodes":"15","size_leaf_vector":"1"}},{"base_weights":[1.2558223E-2,-5.0108445E-1,1.5705188E-1,-1.0501829E0,-3.333144E-1,4.9137866E-1,3.7685208E-2,-1.925728E-2,2.1577287E-3,-1.235555E-2,-3.3050417E-3,6.9372472E-3,1.8791223E-2,-1.0281812E-4,9.078779E-3],"categories":[],"categories_nodes":[],"categories_segments":[],"categories_sizes":[],"default_left":[0,0,0,0,0,0,0,0,0,0,0,0,0,0,0],"id":18,"left_children":[1,3,5,7,9,11,13,-1,-1,-1,-1,-1,-1,-1,-1],"loss_changes":[2.2278244E2,5.9371307E1,9.32527E1,1.7170975E1,2.702657E1,2.9245712E1,3.8272797E1,0E0,0E0,0E0,0E0,0E0,0E0,0E0,0E0],"parents":[2147483647,0,0,1,1,2,2,3,3,4,4,5,5,6,6],"right_children":[2,4,6,8,10,12,14,-1,-1,-1,-1,-1,-1,-1,-1],"split_conditions":[1.2318682E-2,8.363773E-3,-2.9973045E-1,6.9959707E0,5.0264328E1,3.1698585E0,2.4545766E-1,-1.925728E-2,2.1577287E-3,-1.235555E-2,-3.3050417E-3,6.9372472E-3,1.8791223E-2,-1.0281812E-4,9.078779E-3],"split_indices":[9,9,10,12,7,12,16,0,0,0,0,0,0,0,0],"split_type":[0,0,0,0,0,0,0,0,0,0,0,0,0,0,0],"sum_hessian":[3.002483E3,6.57579E2,2.3449038E3,1.5158736E2,5.059916E2,6.145624E2,1.7303416E3,1.4129369E2,1.0293676E1,1.2725453E2,3.787371E2,5.46852E2,6.7710335E1,1.5909008E3,1.3944077E2],"tree_param":{"num_deleted":"0","num_feature":"17","num_nodes":"15","size_leaf_vector":"1"}},{"base_weights":[-1.7620813E-2,-5.253371E-1,1.2237759E-1,-3.0780745E-1,-8.4728646E-1,4.59068E-1,-6.1708232E-3,-1.6247513E-2,-1.8904337E-3,-1.8869717E-2,-0E0,6.550425E-3,1.6748935E-2,1.1891958E-4,-2.5880596E-2],"categories":[],"categories_nodes":[],"categories_segments":[],"categories_sizes":[],"default_left":[0,0,0,0,0,0,0,0,0,0,0,0,0,0,0],"id":19,"left_children":[1,3,5,7,9,11,13,-1,-1,-1,-1,-1,-1,-1,-1],"loss_changes":[2.091227E2,4.3491104E1,9.995059E1,4.8225445E1,5.8347946E1,2.2779984E1,3.4649475E1,0E0,0E0,0E0,0E0,0E0,0E0,0E0,0E0],"parents":[2147483647,0,0,1,1,2,2,3,3,4,4,5,5,6,6],"right_children":[2,4,6,8,10,12,14,-1,-1,-1,-1,-1,-1,-1,-1],"split_conditions":[1.2318682E-2,2.0666833E0,-2.893808E-1,3.9035328E1,5.8977413E0,2.1524284E0,5.126904E2,-1.6247513E-2,-1.8904337E-3,-1.8869717E-2,-0E0,6.550425E-3,1.6748935E-2,1.1891958E-4,-2.5880596E-2],"split_indices":[9,13,10,5,13,13,5,0,0,0,0,0,0,0,0],"split_type":[0,0,0,0,0,0,0,0,0,0,0,0,0,0,0],"sum_hessian":[2.9362017E3,6.349913E2,2.3012104E3,3.8148853E2,2.5350276E2,6.3646484E2,1.6647456E3,8.601774E1,2.954708E2,1.9179333E2,6.170943E1,5.645357E2,7.1929146E1,1.6511411E3,1.3604507E1],"tree_param":{"num_deleted":"0","num_feature":"17","num_nodes":"15","size_leaf_vector":"1"}},{"base_weights":[-1.1529657E-2,-4.8012313E-1,1.23045675E-1,-1.0302271E0,-3.388515E-1,1.9879717E-1,-1.990566E-1,-6.6476515E-3,-2.153712E-2,7.452966E-4,-7.790347E-3,1.9627167E-3,7.340844E-3,1.5133248E-4,-7.6363445E-3],"categories":[],"categories_nodes":[],"categories_segments":[],"categories_sizes":[],"default_left":[0,0,0,0,0,0,0,0,0,0,0,0,0,0,0],"id":20,"left_children":[1,3,5,7,9,11,13,-1,-1,-1,-1,-1,-1,-1,-1],"loss_changes":[1.868395E2,5.009346E1,5.611112E1,1.923262E1,2.5156055E1,3.5867447E1,2.3302256E1,0E0,0E0,0E0,0E0,0E0,0E0,0E0,0E0],"parents":[2147483647,0,0,1,1,2,2,3,3,4,4,5,5,6,6],"right_children":[2,4,6,8,10,12,14,-1,-1,-1,-1,-1,-1,-1,-1],"split_conditions":[1.2318682E-2,8.040891E-3,3.0352942E2,2.8832397E2,-7.107974E-3,8.49224E7,6.996668E-1,-6.6476515E-3,-2.153712E-2,7.452966E-4,-7.790347E-3,1.9627167E-3,7.340844E-3,1.5133248E-4,-7.6363445E-3],"split_indices":[9,9,14,14,8,4,13,0,0,0,0,0,0,0,0],"split_type":[0,0,0,0,0,0,0,0,0,0,0,0,0,0,0],"sum_hessian":[2.9569043E3,6.601812E2,2.2967231E3,1.3249481E2,5.276864E2,1.8614397E3,4.3528342E2,3.8487988E1,9.400683E1,1.2691614E2,4.0077026E2,1.3827911E3,4.7864862E2,2.3820207E2,1.9708136E2],"tree_param":{"num_deleted":"0","num_feature":"17","num_nodes":"15","size_leaf_vector":"1"}},{"base_weights":[-1.1965277E-3,3.1304187E-1,-1.8520135E-1,1.7527686E-1,5.4614407E-1,-2.9153734E-2,-5.6511426E-1,5.3014647E-4,8.422845E-3,1.1698323E-2,3.5736586E-3,-1.6685732E-3,8.270089E-3,-6.229733E-3,-1.6836401E-2],"categories":[],"categories_nodes":[],"categories_segments":[],"categories_sizes":[],"default_left":[0,0,0,0,0,0,0,0,0,0,0,0,0,0,0],"id":21,"left_children":[1,3,5,7,9,11,13,-1,-1,-1,-1,-1,-1,-1,-1],"loss_changes":[1.7190828E2,3.4649155E1,1.1088595E2,3.1914001E1,1.9154167E1,4.804246E1,4.4900757E1,0E0,0E0,0E0,0E0,0E0,0E0,0E0,0E0],"parents":[2147483647,0,0,1,1,2,2,3,3,4,4,5,5,6,6],"right_children":[2,4,6,8,10,12,14,-1,-1,-1,-1,-1,-1,-1,-1],"split_conditions":[-2.0455885E-1,6.35634E7,3.1988663E2,3.1534436E-1,1.7894879E-1,1.344733E8,-1.8733377E-2,5.3014647E-4,8.422845E-3,1.1698323E-2,3.5736586E-3,-1.6685732E-3,8.270089E-3,-6.229733E-3,-1.6836401E-2],"split_indices":[10,4,2,13,13,4,10,0,0,0,0,0,0,0,0],"split_type":[0,0,0,0,0,0,0,0,0,0,0,0,0,0,0],"sum_hessian":[2.9723071E3,1.0960739E3,1.8762333E3,6.919418E2,4.0413205E2,1.3320521E3,5.441812E2,4.8134152E2,2.1060027E2,2.785269E2,1.2560516E2,1.1762925E3,1.5575958E2,3.7694446E2,1.6723676E2],"tree_param":{"num_deleted":"0","num_feature":"17","num_nodes":"15","size_leaf_vector":"1"}},{"base_weights":[6.270388E-3,-6.4851344E-1,1.06760055E-1,-1.4057065E0,-5.364207E-1,4.4443703E-1,5.006028E-5,-8.858805E-3,-2.5721395E-2,-2.4068383E-2,-7.873874E-3,-8.100535E-3,7.894971E-3,-9.4692863E-4,4.6243924E-3],"categories":[],"categories_nodes":[],"categories_segments":[],"categories_sizes":[],"default_left":[0,0,0,0,0,0,0,0,0,0,0,0,0,0,0],"id":22,"left_children":[1,3,5,7,9,11,13,-1,-1,-1,-1,-1,-1,-1,-1],"loss_changes":[1.9480493E2,3.1286957E1,9.2392365E1,2.8822174E0,1.9486252E1,1.35373535E1,3.026988E1,0E0,0E0,0E0,0E0,0E0,0E0,0E0,0E0],"parents":[2147483647,0,0,1,1,2,2,3,3,4,4,5,5,6,6],"right_children":[2,4,6,8,10,12,14,-1,-1,-1,-1,-1,-1,-1,-1],"split_conditions":[1.05672935E-2,6.611126E-3,-2.9973045E-1,2.7781067E2,1.6287079E1,1.36171775E-2,8.757492E7,-8.858805E-3,-2.5721395E-2,-2.4068383E-2,-7.873874E-3,-8.100535E-3,7.894971E-3,-9.4692863E-4,4.6243924E-3],"split_indices":[9,9,10,1,6,9,4,0,0,0,0,0,0,0,0],"split_type":[0,0,0,0,0,0,0,0,0,0,0,0,0,0,0],"sum_hessian":[2.9637554E3,3.926374E2,2.571118E3,4.819587E1,3.4444153E2,6.1505414E2,1.9560637E3,7.0920353E0,4.1103832E1,2.2812286E1,3.2162924E2,1.3905608E1,6.0114856E2,1.6220394E3,3.3402435E2],"tree_param":{"num_deleted":"0","num_feature":"17","num_nodes":"15","size_leaf_vector":"1"}},{"base_weights":[-2.248218E-2,-5.1447654E-1,1.1404919E-1,-9.7136766E-1,-3.310786E-1,1.8678728E-1,-1.5176001E-1,1.1693428E-2,-1.7562246E-2,6.1676087E-4,-7.560553E-3,2.4635043E-2,2.9146401E-3,-2.1389667E-3,-2.891288E-2],"categories":[],"categories_nodes":[],"categories_segments":[],"categories_sizes":[],"default_left":[0,0,0,0,0,0,0,0,0,0,0,0,0,0,0],"id":23,"left_children":[1,3,5,7,9,11,13,-1,-1,-1,-1,-1,-1,-1,-1],"loss_changes":[1.9974619E2,5.2917053E1,4.498221E1,2.2164871E1,2.0219707E1,3.1412132E1,1.7993088E1,0E0,0E0,0E0,0E0,0E0,0E0,0E0,0E0],"parents":[2147483647,0,0,1,1,2,2,3,3,4,4,5,5,6,6],"right_children":[2,4,6,8,10,12,14,-1,-1,-1,-1,-1,-1,-1,-1],"split_conditions":[1.2318682E-2,8.821822E-3,2.700158E2,-1.9352709E0,5.171937E-2,1.3041121E1,5.3161897E-2,1.1693428E-2,-1.7562246E-2,6.1676087E-4,-7.560553E-3,2.4635043E-2,2.9146401E-3,-2.1389667E-3,-2.891288E-2],"split_indices":[9,9,6,12,16,5,9,0,0,0,0,0,0,0,0],"split_type":[0,0,0,0,0,0,0,0,0,0,0,0,0,0,0],"sum_hessian":[2.967569E3,6.450081E2,2.322561E3,1.8233235E2,4.6267578E2,1.8257697E3,4.9679126E2,6.4917054E0,1.7584064E2,1.104354E2,3.522404E2,1.8220682E1,1.8075491E3,4.905668E2,6.2244496E0],"tree_param":{"num_deleted":"0","num_feature":"17","num_nodes":"15","size_leaf_vector":"1"}},{"base_weights":[1.2151011E-3,-4.3486884E-1,1.22410655E-1,-1.1876489E0,-3.334211E-1,4.1459128E-1,1.2970696E-2,-9.794852E-3,-2.4133625E-2,-3.980602E-3,-1.2520226E-2,5.644828E-3,1.677089E-2,1.2733202E-3,-4.1383E-3],"categories":[],"categories_nodes":[],"categories_segments":[],"categories_sizes":[],"default_left":[0,0,0,0,0,0,0,0,0,0,0,0,0,0,0],"id":24,"left_children":[1,3,5,7,9,11,13,-1,-1,-1,-1,-1,-1,-1,-1],"loss_changes":[1.5633301E2,4.7648453E1,7.386117E1,8.791519E0,2.1826698E1,2.7992012E1,2.7162577E1,0E0,0E0,0E0,0E0,0E0,0E0,0E0,0E0],"parents":[2147483647,0,0,1,1,2,2,3,3,4,4,5,5,6,6],"right_children":[2,4,6,8,10,12,14,-1,-1,-1,-1,-1,-1,-1,-1],"split_conditions":[1.2318682E-2,7.0360303E-3,-2.915599E-1,1.6367021E0,-8.990751E-3,2.1524284E0,2.8258038E0,-9.794852E-3,-2.4133625E-2,-3.980602E-3,-1.2520226E-2,5.644828E-3,1.677089E-2,1.2733202E-3,-4.1383E-3],"split_indices":[9,9,10,12,10,13,13,0,0,0,0,0,0,0,0],"split_type":[0,0,0,0,0,0,0,0,0,0,0,0,0,0,0],"sum_hessian":[2.9596328E3,6.418313E2,2.3178015E3,7.401955E1,5.6781177E2,6.290882E2,1.6887133E3,2.2974989E1,5.1044556E1,4.6105484E2,1.0675693E2,5.55176E2,7.391219E1,1.3623894E3,3.2632382E2],"tree_param":{"num_deleted":"0","num_feature":"17","num_nodes":"15","size_leaf_vector":"1"}},{"base_weights":[-4.288917E-3,-3.4545228E-1,1.4979438E-1,-9.35405E-1,-2.3692153E-1,2.232543E-1,-1.944186E-1,-6.0731606E-3,-1.9968541E-2,7.050037E-4,-7.35696E-3,2.6600186E-2,3.5126957E-3,-2.482475E-2,-2.0096123E-3],"categories":[],"categories_nodes":[],"categories_segments":[],"categories_sizes":[],"default_left":[0,0,0,0,0,0,0,0,0,0,0,0,0,0,0],"id":25,"left_children":[1,3,5,7,9,11,13,-1,-1,-1,-1,-1,-1,-1,-1],"loss_changes":[1.5541348E2,5.790509E1,5.1489487E1,1.8700981E1,4.35259E1,3.2790833E1,3.305552E1,0E0,0E0,0E0,0E0,0E0,0E0,0E0,0E0],"parents":[2147483647,0,0,1,1,2,2,3,3,4,4,5,5,6,6],"right_children":[2,4,6,8,10,12,14,-1,-1,-1,-1,-1,-1,-1,-1],"split_conditions":[1.4041627E-2,8.1773335E-3,2.592988E2,2.8354773E2,3.55668E-1,1.3041121E1,2.6506982E2,-6.0731606E-3,-1.9968541E-2,7.050037E-4,-7.35696E-3,2.6600186E-2,3.5126957E-3,-2.482475E-2,-2.0096123E-3],"split_indices":[9,9,15,3,12,5,15,0,0,0,0,0,0,0,0],"split_type":[0,0,0,0,0,0,0,0,0,0,0,0,0,0,0],"sum_hessian":[2.9517559E3,9.1926685E2,2.0324891E3,1.4055774E2,7.787091E2,1.6769285E3,3.555607E2,4.39269E1,9.6630844E1,3.233596E2,4.5534955E2,1.6778877E1,1.6601495E3,1.8169266E1,3.3739142E2],"tree_param":{"num_deleted":"0","num_feature":"17","num_nodes":"15","size_leaf_vector":"1"}},{"base_weights":[-4.6227328E-3,4.401041E-1,-1.1982963E-1,7.416277E-1,3.3348066E-1,-3.4295652E-2,-4.9567482E-1,1.4838477E-2,3.4064017E-3,1.6951267E-2,4.600644E-3,-1.5737589E-3,7.42939E-3,6.741179E-3,-1.062528E-2],"categories":[],"categories_nodes":[],"categories_segments":[],"categories_sizes":[],"default_left":[0,0,0,0,0,0,0,0,0,0,0,0,0,0,0],"id":26,"left_children":[1,3,5,7,9,11,13,-1,-1,-1,-1,-1,-1,-1,-1],"loss_changes":[1.5128868E2,1.8531464E1,7.516681E1,1.0673645E1,1.7321857E1,5.3428387E1,5.24497E1,0E0,0E0,0E0,0E0,0E0,0E0,0E0,0E0],"parents":[2147483647,0,0,1,1,2,2,3,3,4,4,5,5,6,6],"right_children":[2,4,6,8,10,12,14,-1,-1,-1,-1,-1,-1,-1,-1],"split_conditions":[-2.9973045E-1,-5.66822E-1,3.4654608E2,1.2243361E2,1.6019218E1,1.153667E8,-1.8331115E-1,1.4838477E-2,3.4064017E-3,1.6951267E-2,4.600644E-3,-1.5737589E-3,7.42939E-3,6.741179E-3,-1.062528E-2],"split_indices":[10,10,2,15,5,4,10,0,0,0,0,0,0,0,0],"split_type":[0,0,0,0,0,0,0,0,0,0,0,0,0,0,0],"sum_hessian":[2.9546658E3,6.060902E2,2.3485754E3,1.5496259E2,4.5112766E2,1.9156133E3,4.329622E2,1.2195343E2,3.300916E1,3.5186302E1,4.1594135E2,1.7059661E3,2.0964722E2,5.5395878E1,3.775663E2],"tree_param":{"num_deleted":"0","num_feature":"17","num_nodes":"15","size_leaf_vector":"1"}},{"base_weights":[-3.4244568E-3,9.702117E-2,-4.1255078E-1,3.7338904E-1,-3.3440694E-4,2.679187E-1,-6.1197066E-1,1.1525127E-2,4.5131687E-3,-4.6834597E-4,1.2440243E-2,8.6444E-3,-1.38688525E-2,-1.2575373E-2,-9.80041E-4],"categories":[],"categories_nodes":[],"categories_segments":[],"categories_sizes":[],"default_left":[0,0,0,0,0,0,0,0,0,0,0,0,0,0,0],"id":27,"left_children":[1,3,5,7,9,11,13,-1,-1,-1,-1,-1,-1,-1,-1],"loss_changes":[1.22557014E2,6.45276E1,8.022458E1,1.9636383E1,3.525624E1,3.5754288E1,3.3038452E1,0E0,0E0,0E0,0E0,0E0,0E0,0E0,0E0],"parents":[2147483647,0,0,1,1,2,2,3,3,4,4,5,5,6,6],"right_children":[2,4,6,8,10,12,14,-1,-1,-1,-1,-1,-1,-1,-1],"split_conditions":[3.2423123E2,-2.915599E-1,-1.6422147E-1,-5.5638707E-1,2.9160114E2,4.4512817E2,4.2839108E2,1.1525127E-2,4.5131687E-3,-4.6834597E-4,1.2440243E-2,8.6444E-3,-1.38688525E-2,-1.2575373E-2,-9.80041E-4],"split_indices":[3,10,10,10,15,15,5,0,0,0,0,0,0,0,0],"split_type":[0,0,0,0,0,0,0,0,0,0,0,0,0,0,0],"sum_hessian":[2.9749841E3,2.3879502E3,5.87034E2,6.23008E2,1.7649423E3,1.3220613E2,4.5482785E2,1.5577744E2,4.6723056E2,1.7035874E3,6.1354855E1,1.0898003E2,2.32261E1,3.6542334E2,8.9404526E1],"tree_param":{"num_deleted":"0","num_feature":"17","num_nodes":"15","size_leaf_vector":"1"}},{"base_weights":[-7.624705E-3,2.846014E-1,-1.7814562E-1,1.5338387E-1,4.5802194E-1,-3.735097E-2,-5.202233E-1,8.5626845E-4,1.1183197E-2,8.619145E-3,-3.919038E-3,-1.27457E-3,1.3089837E-2,-2.4889985E-3,-1.1709555E-2],"categories":[],"categories_nodes":[],"categories_segments":[],"categories_sizes":[],"default_left":[0,0,0,0,0,0,0,0,0,0,0,0,0,0,0],"id":28,"left_children":[1,3,5,7,9,11,13,-1,-1,-1,-1,-1,-1,-1,-1],"loss_changes":[1.4670337E2,2.4182648E1,8.92619E1,3.1946613E1,1.7188774E1,4.0597183E1,3.4348038E1,0E0,0E0,0E0,0E0,0E0,0E0,0E0,0E0],"parents":[2147483647,0,0,1,1,2,2,3,3,4,4,5,5,6,6],"right_children":[2,4,6,8,10,12,14,-1,-1,-1,-1,-1,-1,-1,-1],"split_conditions":[-2.0455885E-1,5.19968E7,3.1988663E2,1.8570237E0,2.8840845E2,3.0142264E2,5.1879483E-1,8.5626845E-4,1.1183197E-2,8.619145E-3,-3.919038E-3,-1.27457E-3,1.3089837E-2,-2.4889985E-3,-1.1709555E-2],"split_indices":[10,4,2,13,5,5,13,0,0,0,0,0,0,0,0],"split_type":[0,0,0,0,0,0,0,0,0,0,0,0,0,0,0],"sum_hessian":[2.9431873E3,1.0828472E3,1.8603401E3,6.1980963E2,4.630376E2,1.3201619E3,5.401783E2,5.1793805E2,1.0187158E2,4.313779E2,3.1659693E1,1.262711E3,5.745081E1,1.7348807E2,3.6669022E2],"tree_param":{"num_deleted":"0","num_feature":"17","num_nodes":"15","size_leaf_vector":"1"}},{"base_weights":[1.556292E-2,1.1010677E-1,-4.0734273E-1,3.789763E-2,4.6691453E-1,-4.582479E-3,-6.7670715E-1,5.116483E-3,-9.991303E-4,3.2592334E-3,1.1522397E-2,-4.177545E-3,7.706081E-3,-1.5097386E-2,-1.680504E-3],"categories":[],"categories_nodes":[],"categories_segments":[],"categories_sizes":[],"default_left":[0,0,0,0,0,0,0,0,0,0,0,0,0,0,0],"id":29,"left_children":[1,3,5,7,9,11,13,-1,-1,-1,-1,-1,-1,-1,-1],"loss_changes":[1.178141E2,6.182586E1,5.7912857E1,5.1947777E1,2.3174301E1,2.4381634E1,3.9642944E1,0E0,0E0,0E0,0E0,0E0,0E0,0E0,0E0],"parents":[2147483647,0,0,1,1,2,2,3,3,4,4,5,5,6,6],"right_children":[2,4,6,8,10,12,14,-1,-1,-1,-1,-1,-1,-1,-1],"split_conditions":[3.4664197E2,2.185542E-1,5.1879483E-1,-5.799443E-1,-2.3981051E-1,4.185557E2,5.8977413E0,5.116483E-3,-9.991303E-4,3.2592334E-3,1.1522397E-2,-4.177545E-3,7.706081E-3,-1.5097386E-2,-1.680504E-3],"split_indices":[14,16,13,13,13,6,13,0,0,0,0,0,0,0,0],"split_type":[0,0,0,0,0,0,0,0,0,0,0,0,0,0,0],"sum_hessian":[2.9491367E3,2.4122559E3,5.3688104E2,2.0088196E3,4.0343625E2,2.1660703E2,3.2027402E2,5.394779E2,1.4693416E3,1.8010419E2,2.2333206E2,1.43153E2,7.345402E1,2.3123941E2,8.90346E1],"tree_param":{"num_deleted":"0","num_feature":"17","num_nodes":"15","size_leaf_vector":"1"}},{"base_weights":[-9.8819705E-3,4.1747034E-1,-1.0004071E-1,-3.868174E-1,4.704688E-1,-2.7998198E-2,-5.15476E-1,-1.8448683E-2,5.843824E-3,1.2591667E-2,5.693816E-3,-1.7233549E-2,-2.4070432E-4,-1.1426915E-2,1.0053697E-2],"categories":[],"categories_nodes":[],"categories_segments":[],"categories_sizes":[],"default_left":[0,0,0,0,0,0,0,0,0,0,0,0,0,0,0],"id":30,"left_children":[1,3,5,7,9,11,13,-1,-1,-1,-1,-1,-1,-1,-1],"loss_changes":[1.1399338E2,2.221698E1,7.2915344E1,1.7326206E1,1.67743E1,2.7801573E1,6.522265E1,0E0,0E0,0E0,0E0,0E0,0E0,0E0,0E0],"parents":[2147483647,0,0,1,1,2,2,3,3,4,4,5,5,6,6],"right_children":[2,4,6,8,10,12,14,-1,-1,-1,-1,-1,-1,-1,-1],"split_conditions":[-3.215406E-1,2.1183283E1,-1.618261E-2,3.77297E1,-5.5638707E-1,3.3525657E-2,1.9328444E-1,-1.8448683E-2,5.843824E-3,1.2591667E-2,5.693816E-3,-1.7233549E-2,-2.4070432E-4,-1.1426915E-2,1.0053697E-2],"split_indices":[10,11,10,1,10,16,16,0,0,0,0,0,0,0,0],"split_type":[0,0,0,0,0,0,0,0,0,0,0,0,0,0,0],"sum_hessian":[2.9617136E3,5.1398737E2,2.447726E3,3.056505E1,4.8342233E2,2.088367E3,3.5935925E2,1.5746382E1,1.4818669E1,1.541438E2,3.2927853E2,2.6710484E1,2.0616565E3,3.14644E2,4.4715252E1],"tree_param":{"num_deleted":"0","num_feature":"17","num_nodes":"15","size_leaf_vector":"1"}},{"base_weights":[-1.5742859E-2,7.196387E-2,-3.7261808E-1,-4.2172004E-2,2.2955878E-1,4.420168E-2,-6.160455E-1,1.4010685E-3,-6.369521E-3,2.1953916E-2,3.566292E-3,-1.52432155E-2,3.2224476E-3,-4.1212165E-3,-1.4035127E-2],"categories":[],"categories_nodes":[],"categories_segments":[],"categories_sizes":[],"default_left":[0,0,0,0,0,0,0,0,0,0,0,0,0,0,0],"id":31,"left_children":[1,3,5,7,9,11,13,-1,-1,-1,-1,-1,-1,-1,-1],"loss_changes":[9.26914E1,4.2777534E1,5.9709824E1,5.7866264E1,1.8214718E1,2.9680283E1,2.8717484E1,0E0,0E0,0E0,0E0,0E0,0E0,0E0,0E0],"parents":[2147483647,0,0,1,1,2,2,3,3,4,4,5,5,6,6],"right_children":[2,4,6,8,10,12,14,-1,-1,-1,-1,-1,-1,-1,-1],"split_conditions":[3.1988663E2,1.4658254E-1,5.8082694E-1,6.046543E1,1.3041121E1,3.29106E2,-2.5444636E-3,1.4010685E-3,-6.369521E-3,2.1953916E-2,3.566292E-3,-1.52432155E-2,3.2224476E-3,-4.1212165E-3,-1.4035127E-2],"split_indices":[2,16,13,11,5,7,8,0,0,0,0,0,0,0,0],"split_type":[0,0,0,0,0,0,0,0,0,0,0,0,0,0,0],"sum_hessian":[2.9529028E3,2.3695864E3,5.833163E2,1.3723212E3,9.972653E2,2.1439917E2,3.689171E2,9.983614E2,3.7395984E2,1.4781185E1,9.8248413E2,2.7370749E1,1.8702841E2,1.3737326E2,2.3154385E2],"tree_param":{"num_deleted":"0","num_feature":"17","num_nodes":"15","size_leaf_vector":"1"}},{"base_weights":[-2.3759061E-2,-3.9184594E-1,1.1493714E-1,4.277662E-1,-4.684956E-1,4.3512115E-1,-8.992556E-3,1.3751514E-2,-1.9185305E-2,-2.4647512E-2,-6.8035317E-3,6.1343177E-3,1.5903406E-2,1.2969652E-3,-4.497131E-3],"categories":[],"categories_nodes":[],"categories_segments":[],"categories_sizes":[],"default_left":[0,0,0,0,0,0,0,0,0,0,0,0,0,0,0],"id":32,"left_children":[1,3,5,7,9,11,13,-1,-1,-1,-1,-1,-1,-1,-1],"loss_changes":[1.502481E2,5.087197E1,8.495698E1,4.2457672E1,4.5975494E1,2.044625E1,3.4137737E1,0E0,0E0,0E0,0E0,0E0,0E0,0E0,0E0],"parents":[2147483647,0,0,1,1,2,2,3,3,4,4,5,5,6,6],"right_children":[2,4,6,8,10,12,14,-1,-1,-1,-1,-1,-1,-1,-1],"split_conditions":[1.3493829E-2,-1.3291067E0,-2.9973045E-1,7.779537E-3,6.611126E-3,1.9498541E0,2.6509485E2,1.3751514E-2,-1.9185305E-2,-2.4647512E-2,-6.8035317E-3,6.1343177E-3,1.5903406E-2,1.2969652E-3,-4.497131E-3],"split_indices":[9,13,10,8,9,13,7,0,0,0,0,0,0,0,0],"split_type":[0,0,0,0,0,0,0,0,0,0,0,0,0,0,0],"sum_hessian":[2.9373176E3,8.0463007E2,2.1326875E3,6.763385E1,7.369962E2,5.9582996E2,1.5368577E3,5.4992256E1,1.2641596E1,4.347213E1,6.935241E2,5.2489355E2,7.0936356E1,1.1512474E3,3.8561023E2],"tree_param":{"num_deleted":"0","num_feature":"17","num_nodes":"15","size_leaf_vector":"1"}},{"base_weights":[6.6132615E-3,-4.2147622E-1,1.2512061E-1,-1.3096777E0,-3.461924E-1,4.0931022E-1,2.8013285E-2,-3.6607255E-4,-2.5212763E-2,-3.187388E-3,-9.912372E-3,5.8672354E-3,1.530506E-2,1.881638E-2,2.5608228E-4],"categories":[],"categories_nodes":[],"categories_segments":[],"categories_sizes":[],"default_left":[0,0,0,0,0,0,0,0,0,0,0,0,0,0,0],"id":33,"left_children":[1,3,5,7,9,11,13,-1,-1,-1,-1,-1,-1,-1,-1],"loss_changes":[1.4943109E2,4.1071342E1,6.3476387E1,1.0530579E1,2.176632E1,1.6819763E1,2.3312273E1,0E0,0E0,0E0,0E0,0E0,0E0,0E0,0E0],"parents":[2147483647,0,0,1,1,2,2,3,3,4,4,5,5,6,6],"right_children":[2,4,6,8,10,12,14,-1,-1,-1,-1,-1,-1,-1,-1],"split_conditions":[1.2318682E-2,6.611126E-3,-2.9973045E-1,4.1156178E1,1.8289086E0,2.104435E0,1.3151198E1,-3.6607255E-4,-2.5212763E-2,-3.187388E-3,-9.912372E-3,5.8672354E-3,1.530506E-2,1.881638E-2,2.5608228E-4],"split_indices":[9,9,10,11,12,13,3,0,0,0,0,0,0,0,0],"split_type":[0,0,0,0,0,0,0,0,0,0,0,0,0,0,0],"sum_hessian":[2.947093E3,6.371228E2,2.3099702E3,4.7655922E1,5.8946686E2,5.8563745E2,1.7243328E3,6.569059E0,4.1086864E1,3.5957468E2,2.2989217E2,5.23925E2,6.1712452E1,1.8405748E1,1.705927E3],"tree_param":{"num_deleted":"0","num_feature":"17","num_nodes":"15","size_leaf_vector":"1"}},{"base_weights":[-3.2477456E-3,-4.328684E-1,1.1529788E-1,-1.3301219E0,-3.6314672E-1,4.2370933E-1,7.7175647E-3,-4.981962E-3,-2.4749301E-2,-1.4507475E-2,-4.5876564E-3,5.96296E-3,1.7020734E-2,3.239872E-4,-1.9723397E-2],"categories":[],"categories_nodes":[],"categories_segments":[],"categories_sizes":[],"default_left":[0,0,0,0,0,0,0,0,0,0,0,0,0,0,0],"id":34,"left_children":[1,3,5,7,9,11,13,-1,-1,-1,-1,-1,-1,-1,-1],"loss_changes":[1.4931392E2,3.8018127E1,7.580077E1,4.6408386E0,2.5774513E1,2.3048576E1,2.225831E1,0E0,0E0,0E0,0E0,0E0,0E0,0E0,0E0],"parents":[2147483647,0,0,1,1,2,2,3,3,4,4,5,5,6,6],"right_children":[2,4,6,8,10,12,14,-1,-1,-1,-1,-1,-1,-1,-1],"split_conditions":[1.2318682E-2,6.611126E-3,-2.9973045E-1,2.7729404E2,3.696415E1,3.1698585E0,5.126904E2,-4.981962E-3,-2.4749301E-2,-1.4507475E-2,-4.5876564E-3,5.96296E-3,1.7020734E-2,3.239872E-4,-1.9723397E-2],"split_indices":[9,9,10,0,7,12,5,0,0,0,0,0,0,0,0],"split_type":[0,0,0,0,0,0,0,0,0,0,0,0,0,0,0],"sum_hessian":[2.9254128E3,6.3320984E2,2.292203E3,4.350676E1,5.8970306E2,5.90344E2,1.7018589E3,6.0414634E0,3.7465294E1,8.9037506E1,5.006656E2,5.295247E2,6.0819256E1,1.6870648E3,1.4794118E1],"tree_param":{"num_deleted":"0","num_feature":"17","num_nodes":"15","size_leaf_vector":"1"}},{"base_weights":[1.412115E-2,-3.6952516E-1,1.2031895E-1,-1.1724207E0,-3.04881E-1,4.2875418E-1,3.1936128E-2,-5.318893E-3,-2.431161E-2,2.0333147E-2,-5.5239093E-3,1.7803844E-2,6.2187226E-3,-2.2269154E-4,9.113787E-3],"categories":[],"categories_nodes":[],"categories_segments":[],"categories_sizes":[],"default_left":[0,0,0,0,0,0,0,0,0,0,0,0,0,0,0],"id":35,"left_children":[1,3,5,7,9,11,13,-1,-1,-1,-1,-1,-1,-1,-1],"loss_changes":[1.2130664E2,3.2098633E1,6.336837E1,9.105011E0,2.0134056E1,1.8199135E1,4.2060677E1,0E0,0E0,0E0,0E0,0E0,0E0,0E0,0E0],"parents":[2147483647,0,0,1,1,2,2,3,3,4,4,5,5,6,6],"right_children":[2,4,6,8,10,12,14,-1,-1,-1,-1,-1,-1,-1,-1],"split_conditions":[1.2318682E-2,6.611126E-3,-3.215406E-1,1.6367021E0,-7.182964E0,1.6138222E1,2.4545766E-1,-5.318893E-3,-2.431161E-2,2.0333147E-2,-5.5239093E-3,1.7803844E-2,6.2187226E-3,-2.2269154E-4,9.113787E-3],"split_indices":[9,9,10,12,12,5,16,0,0,0,0,0,0,0,0],"split_type":[0,0,0,0,0,0,0,0,0,0,0,0,0,0,0],"sum_hessian":[2.9791086E3,6.4391187E2,2.3351968E3,4.578247E1,5.981294E2,5.174825E2,1.8177142E3,1.2075787E1,3.3706684E1,7.449569E0,5.906798E2,4.2863876E1,4.746186E2,1.6692267E3,1.4848766E2],"tree_param":{"num_deleted":"0","num_feature":"17","num_nodes":"15","size_leaf_vector":"1"}},{"base_weights":[1.2588698E-3,-3.1454223E-1,1.4137065E-1,-7.6929694E-1,-1.9827801E-1,5.882362E-2,3.8176396E-1,-1.48094855E-2,3.901726E-3,-1.3031499E-4,-5.569516E-3,4.7165705E-3,-2.3132125E-4,1.2934591E-2,4.876426E-3],"categories":[],"categories_nodes":[],"categories_segments":[],"categories_sizes":[],"default_left":[0,0,0,0,0,0,0,0,0,0,0,0,0,0,0],"id":36,"left_children":[1,3,5,7,9,11,13,-1,-1,-1,-1,-1,-1,-1,-1],"loss_changes":[1.306553E2,4.713237E1,4.0334904E1,2.046814E1,1.7966543E1,2.4637318E1,1.7668701E1,0E0,0E0,0E0,0E0,0E0,0E0,0E0,0E0],"parents":[2147483647,0,0,1,1,2,2,3,3,4,4,5,5,6,6],"right_children":[2,4,6,8,10,12,14,-1,-1,-1,-1,-1,-1,-1,-1],"split_conditions":[1.4041627E-2,8.821822E-3,8.757492E7,6.4218535E0,3.9528632E-1,9.850587E-2,-3.1854649E0,-1.48094855E-2,3.901726E-3,-1.3031499E-4,-5.569516E-3,4.7165705E-3,-2.3132125E-4,1.2934591E-2,4.876426E-3],"split_indices":[9,9,4,13,13,16,13,0,0,0,0,0,0,0,0],"split_type":[0,0,0,0,0,0,0,0,0,0,0,0,0,0,0],"sum_hessian":[2.9531724E3,9.0569006E2,2.0474823E3,1.8196104E2,7.23729E2,1.5272161E3,5.202662E2,1.6493066E2,1.7030386E1,2.9833484E2,4.2539417E2,3.7930655E2,1.1479095E3,9.819087E1,4.220753E2],"tree_param":{"num_deleted":"0","num_feature":"17","num_nodes":"15","size_leaf_vector":"1"}},{"base_weights":[-4.2725345E-3,1.17970005E-1,-3.1058303E-1,1.7745208E-2,2.9972374E-1,-1.2532714E-1,-5.8387196E-1,-4.0112596E-4,1.3202067E-2,2.3150848E-2,4.617047E-3,-3.703663E-3,4.6595028E-3,-1.4001723E-2,-9.403632E-4],"categories":[],"categories_nodes":[],"categories_segments":[],"categories_sizes":[],"default_left":[0,0,0,0,0,0,0,0,0,0,0,0,0,0,0],"id":37,"left_children":[1,3,5,7,9,11,13,-1,-1,-1,-1,-1,-1,-1,-1],"loss_changes":[1.1022455E2,3.803913E1,4.1988213E1,4.35931E1,1.9356323E1,1.905737E1,4.319078E1,0E0,0E0,0E0,0E0,0E0,0E0,0E0,0E0],"parents":[2147483647,0,0,1,1,2,2,3,3,4,4,5,5,6,6],"right_children":[2,4,6,8,10,12,14,-1,-1,-1,-1,-1,-1,-1,-1],"split_conditions":[2.700158E2,5.77354E7,2.3516102E0,2.6311856E2,1.3041121E1,4.185557E2,6.4218535E0,-4.0112596E-4,1.3202067E-2,2.3150848E-2,4.617047E-3,-3.703663E-3,4.6595028E-3,-1.4001723E-2,-9.403632E-4],"split_indices":[6,4,13,6,5,6,13,0,0,0,0,0,0,0,0],"split_type":[0,0,0,0,0,0,0,0,0,0,0,0,0,0,0],"sum_hessian":[2.9380728E3,2.0989504E3,8.391223E2,1.3560563E3,7.428942E2,5.0253143E2,3.3659088E2,1.2864238E3,6.963244E1,1.5720958E1,7.271733E2,4.0883447E2,9.369696E1,2.2842123E2,1.0816965E2],"tree_param":{"num_deleted":"0","num_feature":"17","num_nodes":"15","size_leaf_vector":"1"}},{"base_weights":[-6.068576E-3,-5.327695E-1,7.392707E-2,-6.205832E-1,2.8359446E-1,3.703553E-1,-1.8558638E-2,-4.685506E-3,-1.4543676E-2,-1.8194843E-2,1.0198081E-2,4.926549E-3,1.633521E-2,-9.783729E-4,8.549017E-3],"categories":[],"categories_nodes":[],"categories_segments":[],"categories_sizes":[],"default_left":[0,0,0,0,0,0,0,0,0,0,0,0,0,0,0],"id":38,"left_children":[1,3,5,7,9,11,13,-1,-1,-1,-1,-1,-1,-1,-1],"loss_changes":[1.2395952E2,2.8240265E1,7.006347E1,2.8041473E1,1.688916E1,2.7322784E1,3.9892715E1,0E0,0E0,0E0,0E0,0E0,0E0,0E0,0E0],"parents":[2147483647,0,0,1,1,2,2,3,3,4,4,5,5,6,6],"right_children":[2,4,6,8,10,12,14,-1,-1,-1,-1,-1,-1,-1,-1],"split_conditions":[1.05672935E-2,1.0800461E-1,-2.9695684E-1,2.8737454E2,1.2513043E2,3.1698585E0,2.4545766E-1,-4.685506E-3,-1.4543676E-2,-1.8194843E-2,1.0198081E-2,4.926549E-3,1.633521E-2,-9.783729E-4,8.549017E-3],"split_indices":[9,16,10,3,6,12,16,0,0,0,0,0,0,0,0],"split_type":[0,0,0,0,0,0,0,0,0,0,0,0,0,0,0],"sum_hessian":[2.9326577E3,3.869376E2,2.54572E3,3.503342E2,3.6603367E1,6.0628595E2,1.9394341E3,1.4675725E2,2.0357697E2,6.076941E0,3.0526426E1,5.3837286E2,6.791307E1,1.8061376E3,1.3329648E2],"tree_param":{"num_deleted":"0","num_feature":"17","num_nodes":"15","size_leaf_vector":"1"}},{"base_weights":[7.5716246E-3,2.6362577E-1,-1.4031185E-1,3.618687E-1,-3.7867196E-2,-4.1426964E-2,-4.930782E-1,2.6245296E-3,1.0851349E-2,-1.5580489E-2,1.4309078E-3,-1.638989E-3,5.80248E-3,-1.2046876E-2,-1.0793977E-3],"categories":[],"categories_nodes":[],"categories_segments":[],"categories_sizes":[],"default_left":[0,0,0,0,0,0,0,0,0,0,0,0,0,0,0],"id":39,"left_children":[1,3,5,7,9,11,13,-1,-1,-1,-1,-1,-1,-1,-1],"loss_changes":[1.1089815E2,3.2013145E1,6.427941E1,4.6404587E1,2.9207972E1,3.0985395E1,3.7717384E1,0E0,0E0,0E0,0E0,0E0,0E0,0E0,0E0],"parents":[2147483647,0,0,1,1,2,2,3,3,4,4,5,5,6,6],"right_children":[2,4,6,8,10,12,14,-1,-1,-1,-1,-1,-1,-1,-1],"split_conditions":[-2.0455885E-1,2.5575539E2,3.4654608E2,6.538377E1,2.3504924E2,1.153667E8,4.185557E2,2.6245296E-3,1.0851349E-2,-1.5580489E-2,1.4309078E-3,-1.638989E-3,5.80248E-3,-1.2046876E-2,-1.0793977E-3],"split_indices":[10,7,2,14,6,4,6,0,0,0,0,0,0,0,0],"split_type":[0,0,0,0,0,0,0,0,0,0,0,0,0,0,0],"sum_hessian":[2.9243079E3,1.0719213E3,1.8523867E3,8.099633E2,2.6195798E2,1.449271E3,4.0311566E2,4.6941504E2,3.4054825E2,3.164125E1,2.3031671E2,1.2684767E3,1.8079437E2,2.6469516E2,1.384205E2],"tree_param":{"num_deleted":"0","num_feature":"17","num_nodes":"15","size_leaf_vector":"1"}},{"base_weights":[-5.371062E-3,-2.869876E-1,1.1975316E-1,-7.901637E-1,-1.9145909E-1,1.902566E-1,-1.7667045E-1,-1.5088777E-2,6.052499E-3,7.988158E-4,-5.960126E-3,2.2397373E-2,3.013238E-3,-2.0746756E-2,-1.8891833E-3],"categories":[],"categories_nodes":[],"categories_segments":[],"categories_sizes":[],"default_left":[0,0,0,0,0,0,0,0,0,0,0,0,0,0,0],"id":40,"left_children":[1,3,5,7,9,11,13,-1,-1,-1,-1,-1,-1,-1,-1],"loss_changes":[1.03986855E2,4.2848267E1,4.2669365E1,1.78321E1,2.979848E1,2.0724174E1,2.5575882E1,0E0,0E0,0E0,0E0,0E0,0E0,0E0,0E0],"parents":[2147483647,0,0,1,1,2,2,3,3,4,4,5,5,6,6],"right_children":[2,4,6,8,10,12,14,-1,-1,-1,-1,-1,-1,-1,-1],"split_conditions":[1.4041627E-2,8.1773335E-3,2.7350726E2,5.8977413E0,3.9528632E-1,1.3041121E1,2.7632495E2,-1.5088777E-2,6.052499E-3,7.988158E-4,-5.960126E-3,2.2397373E-2,3.013238E-3,-2.0746756E-2,-1.8891833E-3],"split_indices":[9,9,5,13,13,5,1,0,0,0,0,0,0,0,0],"split_type":[0,0,0,0,0,0,0,0,0,0,0,0,0,0,0],"sum_hessian":[2.9457024E3,9.073578E2,2.0383446E3,1.4236679E2,7.64991E2,1.6488163E3,3.895284E2,1.3132187E2,1.1044927E1,3.0751038E2,4.5748065E2,1.4966225E1,1.63385E3,2.080544E1,3.6872296E2],"tree_param":{"num_deleted":"0","num_feature":"17","num_nodes":"15","size_leaf_vector":"1"}},{"base_weights":[-6.0363086E-3,-4.1684863E-1,8.233101E-2,-1.2773919E0,-3.3302394E-1,3.4143496E-1,-6.104597E-3,-1.2334715E-2,-2.4039013E-2,1.5163858E-2,-6.175447E-3,4.72286E-3,1.4322735E-2,-7.4840843E-4,7.968411E-3],"categories":[],"categories_nodes":[],"categories_segments":[],"categories_sizes":[],"default_left":[0,0,0,0,0,0,0,0,0,0,0,0,0,0,0],"id":41,"left_children":[1,3,5,7,9,11,13,-1,-1,-1,-1,-1,-1,-1,-1],"loss_changes":[1.0726537E2,3.6204224E1,5.5800568E1,1.0445175E0,1.9409058E1,1.833001E1,3.2792385E1,0E0,0E0,0E0,0E0,0E0,0E0,0E0,0E0],"parents":[2147483647,0,0,1,1,2,2,3,3,4,4,5,5,6,6],"right_children":[2,4,6,8,10,12,14,-1,-1,-1,-1,-1,-1,-1,-1],"split_conditions":[1.1591927E-2,6.611126E-3,-2.915599E-1,-3.3154928E-3,-4.1816244E0,3.1698585E0,2.4545766E-1,-1.2334715E-2,-2.4039013E-2,1.5163858E-2,-6.175447E-3,4.72286E-3,1.4322735E-2,-7.4840843E-4,7.968411E-3],"split_indices":[9,9,10,8,12,12,16,0,0,0,0,0,0,0,0],"split_type":[0,0,0,0,0,0,0,0,0,0,0,0,0,0,0],"sum_hessian":[2.9464841E3,5.221896E2,2.4242947E3,4.4229565E1,4.7796E2,6.179794E2,1.8063153E3,1.1747388E1,3.2482178E1,1.11326275E1,4.6682736E2,5.537643E2,6.421509E1,1.6748057E3,1.3150958E2],"tree_param":{"num_deleted":"0","num_feature":"17","num_nodes":"15","size_leaf_vector":"1"}},{"base_weights":[-3.792272E-3,7.6104105E-2,-3.5878745E-1,9.912396E-1,6.314372E-2,-5.3875893E-1,9.152133E-2,2.1489527E-2,-3.015836E-4,2.0038048E-4,5.398492E-3,-5.751835E-3,-1.6474945E-2,-1.18916E-2,5.39846E-3],"categories":[],"categories_nodes":[],"categories_segments":[],"categories_sizes":[],"default_left":[0,0,0,0,0,0,0,0,0,0,0,0,0,0,0],"id":42,"left_children":[1,3,5,7,9,11,13,-1,-1,-1,-1,-1,-1,-1,-1],"loss_changes":[8.3519714E1,2.7658806E1,4.4219604E1,1.0157383E1,3.0908031E1,3.2344093E1,2.8077677E1,0E0,0E0,0E0,0E0,0E0,0E0,0E0,0E0],"parents":[2147483647,0,0,1,1,2,2,3,3,4,4,5,5,6,6],"right_children":[2,4,6,8,10,12,14,-1,-1,-1,-1,-1,-1,-1,-1],"split_conditions":[3.4664197E2,1.3151198E1,4.185557E2,1.4443453E1,2.185542E-1,3.7730563E2,7.0029296E-2,2.1489527E-2,-3.015836E-4,2.0038048E-4,5.398492E-3,-5.751835E-3,-1.6474945E-2,-1.18916E-2,5.39846E-3],"split_indices":[14,3,6,6,16,2,16,0,0,0,0,0,0,0,0],"split_type":[0,0,0,0,0,0,0,0,0,0,0,0,0,0,0],"sum_hessian":[2.9358809E3,2.3957107E3,5.4017017E2,3.155686E1,2.3641538E3,3.8682242E2,1.5334775E2,2.494742E1,6.609439E0,1.973719E3,3.9043478E2,2.687125E2,1.1810995E2,3.3010784E1,1.20336975E2],"tree_param":{"num_deleted":"0","num_feature":"17","num_nodes":"15","size_leaf_vector":"1"}},{"base_weights":[1.0209923E-2,-2.5576913E-1,1.279916E-1,-1.1600728E0,-2.0651501E-1,5.3777307E-2,3.47913E-1,-0E0,-2.3616327E-2,2.1452692E-5,-5.8971257E-3,2.0551565E-3,-3.0300044E-3,4.6255477E-3,1.5215956E-2],"categories":[],"categories_nodes":[],"categories_segments":[],"categories_sizes":[],"default_left":[0,0,0,0,0,0,0,0,0,0,0,0,0,0,0],"id":43,"left_children":[1,3,5,7,9,11,13,-1,-1,-1,-1,-1,-1,-1,-1],"loss_changes":[9.2621864E1,3.9202995E1,3.3215466E1,1.2006584E1,2.58172E1,2.4388271E1,2.0018631E1,0E0,0E0,0E0,0E0,0E0,0E0,0E0,0E0],"parents":[2147483647,0,0,1,1,2,2,3,3,4,4,5,5,6,6],"right_children":[2,4,6,8,10,12,14,-1,-1,-1,-1,-1,-1,-1,-1],"split_conditions":[1.4041627E-2,6.611126E-3,8.757492E7,4.671861E1,-2.2406986E-3,2.5485945E2,7.7641426E1,-0E0,-2.3616327E-2,2.1452692E-5,-5.8971257E-3,2.0551565E-3,-3.0300044E-3,4.6255477E-3,1.5215956E-2],"split_indices":[9,9,4,11,8,15,11,0,0,0,0,0,0,0,0],"split_type":[0,0,0,0,0,0,0,0,0,0,0,0,0,0,0],"sum_hessian":[2.9569758E3,9.054079E2,2.0515679E3,4.476356E1,8.6064435E2,1.5372281E3,5.1433966E2,8.214691E0,3.654887E1,3.4924872E2,5.1139563E2,1.1929515E3,3.4427664E2,4.563428E2,5.7996845E1],"tree_param":{"num_deleted":"0","num_feature":"17","num_nodes":"15","size_leaf_vector":"1"}},{"base_weights":[-0E0,3.1568816E-1,-8.7954804E-2,6.014606E-1,2.1971977E-1,-6.417889E-1,-4.2173438E-2,-1.1224322E-2,1.1565882E-2,6.0054576E-3,-2.9537238E-3,-6.300336E-3,-1.6939307E-2,-1.2844485E-3,5.121722E-3],"categories":[],"categories_nodes":[],"categories_segments":[],"categories_sizes":[],"default_left":[0,0,0,0,0,0,0,0,0,0,0,0,0,0,0],"id":44,"left_children":[1,3,5,7,9,11,13,-1,-1,-1,-1,-1,-1,-1,-1],"loss_changes":[8.1891495E1,1.6934715E1,5.7976807E1,1.7424847E1,2.622743E1,1.5655434E1,2.4876972E1,0E0,0E0,0E0,0E0,0E0,0E0,0E0,0E0],"parents":[2147483647,0,0,1,1,2,2,3,3,4,4,5,5,6,6],"right_children":[2,4,6,8,10,12,14,-1,-1,-1,-1,-1,-1,-1,-1],"split_conditions":[-2.915599E-1,-5.5638707E-1,8.821822E-3,2.1183283E1,3.5534397E-2,2.58223E7,1.344733E8,-1.1224322E-2,1.1565882E-2,6.0054576E-3,-2.9537238E-3,-6.300336E-3,-1.6939307E-2,-1.2844485E-3,5.121722E-3],"split_indices":[10,10,9,11,9,4,4,0,0,0,0,0,0,0,0],"split_type":[0,0,0,0,0,0,0,0,0,0,0,0,0,0,0],"sum_hessian":[2.9461418E3,6.416171E2,2.3045247E3,1.5807732E2,4.8353976E2,1.7373164E2,2.130793E3,8.837798E0,1.4923952E2,3.6089285E2,1.2264693E2,1.0209323E2,7.163842E1,1.9428613E3,1.8793175E2],"tree_param":{"num_deleted":"0","num_feature":"17","num_nodes":"15","size_leaf_vector":"1"}},{"base_weights":[-5.4453136E-3,-5.2874565E-1,7.311336E-2,4.905155E-1,-6.0319155E-1,3.355804E-1,-1.3460192E-2,-2.3539832E-3,1.9221539E-2,-2.1746986E-2,-8.56568E-3,1.0710461E-2,3.8747953E-3,5.541171E-4,-5.746944E-3],"categories":[],"categories_nodes":[],"categories_segments":[],"categories_sizes":[],"default_left":[0,0,0,0,0,0,0,0,0,0,0,0,0,0,0],"id":45,"left_children":[1,3,5,7,9,11,13,-1,-1,-1,-1,-1,-1,-1,-1],"loss_changes":[1.2032319E2,2.9406517E1,5.78756E1,1.1471727E1,2.1501282E1,1.927314E1,2.9090874E1,0E0,0E0,0E0,0E0,0E0,0E0,0E0,0E0],"parents":[2147483647,0,0,1,1,2,2,3,3,4,4,5,5,6,6],"right_children":[2,4,6,8,10,12,14,-1,-1,-1,-1,-1,-1,-1,-1],"split_conditions":[1.05672935E-2,-1.5626843E0,-2.915599E-1,3.5772046E2,6.611126E-3,-5.5638707E-1,-1.8733377E-2,-2.3539832E-3,1.9221539E-2,-2.1746986E-2,-8.56568E-3,1.0710461E-2,3.8747953E-3,5.541171E-4,-5.746944E-3],"split_indices":[9,12,10,7,9,10,10,0,0,0,0,0,0,0,0],"split_type":[0,0,0,0,0,0,0,0,0,0,0,0,0,0,0],"sum_hessian":[2.9173523E3,3.8105286E2,2.5362996E3,2.4904188E1,3.5614868E2,6.301824E2,1.9061171E3,1.2559957E1,1.2344232E1,4.106672E1,3.1508194E2,1.6182936E2,4.68353E2,1.6688806E3,2.3723648E2],"tree_param":{"num_deleted":"0","num_feature":"17","num_nodes":"15","size_leaf_vector":"1"}},{"base_weights":[1.0824731E-2,3.6233965E-1,-8.136946E-2,2.958634E-1,8.5300756E-1,-7.447161E-1,-4.1219342E-2,5.5732396E-3,-1.3337034E-2,2.288879E-2,2.6341833E-3,-3.5540143E-3,-1.7110985E-2,-1.1449588E-3,6.646175E-3],"categories":[],"categories_nodes":[],"categories_segments":[],"categories_sizes":[],"default_left":[0,0,0,0,0,0,0,0,0,0,0,0,0,0,0],"id":46,"left_children":[1,3,5,7,9,11,13,-1,-1,-1,-1,-1,-1,-1,-1],"loss_changes":[9.533014E1,1.8901093E1,6.1352997E1,2.0187935E1,2.3718956E1,1.7873001E1,2.5218475E1,0E0,0E0,0E0,0E0,0E0,0E0,0E0,0E0],"parents":[2147483647,0,0,1,1,2,2,3,3,4,4,5,5,6,6],"right_children":[2,4,6,8,10,12,14,-1,-1,-1,-1,-1,-1,-1,-1],"split_conditions":[-2.9695684E-1,2.6426015E0,8.1773335E-3,6.354571E-2,8.468716E0,2.7595563E2,2.5182626E-1,5.5732396E-3,-1.3337034E-2,2.288879E-2,2.6341833E-3,-3.5540143E-3,-1.7110985E-2,-1.1449588E-3,6.646175E-3],"split_indices":[10,12,9,9,12,15,16,0,0,0,0,0,0,0,0],"split_type":[0,0,0,0,0,0,0,0,0,0,0,0,0,0,0],"sum_hessian":[2.933706E3,6.103767E2,2.3233293E3,5.4032404E2,7.005265E1,1.3053065E2,2.1927988E3,5.2510815E2,1.5215887E1,3.9513073E1,3.0539576E1,4.5226364E1,8.530429E1,2.0686812E3,1.24117645E2],"tree_param":{"num_deleted":"0","num_feature":"17","num_nodes":"15","size_leaf_vector":"1"}},{"base_weights":[-3.1542E-3,2.174285E-1,-1.312806E-1,5.850186E-1,1.5440369E-1,-1.6122114E-2,-4.2178142E-1,1.3402896E-2,-1.9723023E-3,-4.199699E-4,4.714055E-3,-9.972872E-4,1.39713185E-2,-4.643374E-3,-1.3134729E-2],"categories":[],"categories_nodes":[],"categories_segments":[],"categories_sizes":[],"default_left":[0,0,0,0,0,0,0,0,0,0,0,0,0,0,0],"id":47,"left_children":[1,3,5,7,9,11,13,-1,-1,-1,-1,-1,-1,-1,-1],"loss_changes":[8.342282E1,2.4508064E1,6.2271442E1,2.3539627E1,2.0955204E1,4.821393E1,2.6730583E1,0E0,0E0,0E0,0E0,0E0,0E0,0E0,0E0],"parents":[2147483647,0,0,1,1,2,2,3,3,4,4,5,5,6,6],"right_children":[2,4,6,8,10,12,14,-1,-1,-1,-1,-1,-1,-1,-1],"split_conditions":[-2.0455885E-1,-5.5638707E-1,3.1988663E2,1.2243361E2,6.538377E1,3.0142264E2,-1.618261E-2,1.3402896E-2,-1.9723023E-3,-4.199699E-4,4.714055E-3,-9.972872E-4,1.39713185E-2,-4.643374E-3,-1.3134729E-2],"split_indices":[10,10,2,15,14,5,10,0,0,0,0,0,0,0,0],"split_type":[0,0,0,0,0,0,0,0,0,0,0,0,0,0,0],"sum_hessian":[2.9514785E3,1.082276E3,1.8692025E3,1.555016E2,9.2677435E2,1.341056E3,5.2814655E2,1.2042225E2,3.5079346E1,3.78733E2,5.480414E2,1.2778271E3,6.322888E1,3.7691287E2,1.5123367E2],"tree_param":{"num_deleted":"0","num_feature":"17","num_nodes":"15","size_leaf_vector":"1"}},{"base_weights":[-9.924187E-3,3.397519E-1,-1.01752535E-1,-2.7000865E-1,3.8937554E-1,-6.193995E-1,-6.00902E-2,-2.1812221E-2,-2.4022096E-4,1.1256134E-2,4.8665497E-3,-3.6846967E-3,-1.4501472E-2,-1.4655597E-3,5.352543E-3],"categories":[],"categories_nodes":[],"categories_segments":[],"categories_sizes":[],"default_left":[0,0,0,0,0,0,0,0,0,0,0,0,0,0,0],"id":48,"left_children":[1,3,5,7,9,11,13,-1,-1,-1,-1,-1,-1,-1,-1],"loss_changes":[9.391814E1,1.8590485E1,4.958137E1,1.0986988E1,1.495504E1,1.5584763E1,2.1581814E1,0E0,0E0,0E0,0E0,0E0,0E0,0E0,0E0],"parents":[2147483647,0,0,1,1,2,2,3,3,4,4,5,5,6,6],"right_children":[2,4,6,8,10,12,14,-1,-1,-1,-1,-1,-1,-1,-1],"split_conditions":[-2.9695684E-1,2.205664E1,8.821822E-3,2.1745575E1,-5.5638707E-1,-1.579575E-3,2.4190049E-1,-2.1812221E-2,-2.4022096E-4,1.1256134E-2,4.8665497E-3,-3.6846967E-3,-1.4501472E-2,-1.4655597E-3,5.352543E-3],"split_indices":[10,11,9,3,10,8,16,0,0,0,0,0,0,0,0],"split_type":[0,0,0,0,0,0,0,0,0,0,0,0,0,0,0],"sum_hessian":[2.927449E3,6.067476E2,2.3207014E3,4.4282085E1,5.624655E2,1.7052155E2,2.15018E3,7.4320908E0,3.6849995E1,1.4667825E2,4.1578726E2,6.564272E1,1.0487882E2,2.0102803E3,1.398996E2],"tree_param":{"num_deleted":"0","num_feature":"17","num_nodes":"15","size_leaf_vector":"1"}},{"base_weights":[1.2443548E-2,-2.6597783E-1,1.3545582E-1,-1.3284379E-1,-6.365844E-1,6.334365E-1,9.2986554E-2,-7.831821E-3,1.7513944E-4,-1.2339464E-2,9.011952E-3,1.1812251E-2,-8.344932E-3,1.8702305E-3,-1.833077E-2],"categories":[],"categories_nodes":[],"categories_segments":[],"categories_sizes":[],"default_left":[0,0,0,0,0,0,0,0,0,0,0,0,0,0,0],"id":49,"left_children":[1,3,5,7,9,11,13,-1,-1,-1,-1,-1,-1,-1,-1],"loss_changes":[1.0086464E2,4.3879948E1,4.2720947E1,3.1898521E1,2.675592E1,1.2465263E1,3.916056E1,0E0,0E0,0E0,0E0,0E0,0E0,0E0,0E0],"parents":[2147483647,0,0,1,1,2,2,3,3,4,4,5,5,6,6],"right_children":[2,4,6,8,10,12,14,-1,-1,-1,-1,-1,-1,-1,-1],"split_conditions":[1.4041627E-2,-1.7766472E-2,-5.5638707E-1,5.020798E1,4.3121326E2,6.927845E-2,4.4512817E2,-7.831821E-3,1.7513944E-4,-1.2339464E-2,9.011952E-3,1.1812251E-2,-8.344932E-3,1.8702305E-3,-1.833077E-2],"split_indices":[9,10,10,6,6,9,15,0,0,0,0,0,0,0,0],"split_type":[0,0,0,0,0,0,0,0,0,0,0,0,0,0,0],"sum_hessian":[2.9452375E3,9.004657E2,2.0447719E3,6.649188E2,2.3554686E2,1.5822656E2,1.8865453E3,2.013705E2,4.6354834E2,2.188607E2,1.6686163E1,1.5038211E2,7.8444495E0,1.8600073E3,2.6538021E1],"tree_param":{"num_deleted":"0","num_feature":"17","num_nodes":"15","size_leaf_vector":"1"}},{"base_weights":[2.24291E-3,-6.441161E-1,4.330164E-2,1.8887576E-2,-7.2244304E-1,2.8935054E-1,-2.8143568E-2,-1.3687124E-2,3.5511472E-3,3.673647E-3,1.386479E-2,1.2250174E-3,-2.7628466E-3],"categories":[],"categories_nodes":[],"categories_segments":[],"categories_sizes":[],"default_left":[0,0,0,0,0,0,0,0,0,0,0,0,0],"id":50,"left_children":[1,3,5,-1,7,9,11,-1,-1,-1,-1,-1,-1],"loss_changes":[7.729998E1,2.466304E1,4.8590664E1,0E0,1.4424652E1,2.283319E1,2.919762E1,0E0,0E0,0E0,0E0,0E0,0E0],"parents":[2147483647,0,0,1,1,2,2,4,4,5,5,6,6],"right_children":[2,4,6,-1,8,10,12,-1,-1,-1,-1,-1,-1],"split_conditions":[8.821822E-3,-1.7483484E0,-2.915599E-1,1.8887576E-2,6.4218535E0,2.1524284E0,7.326814E-1,-1.3687124E-2,3.5511472E-3,3.673647E-3,1.386479E-2,1.2250174E-3,-2.7628466E-3],"split_indices":[9,13,10,0,13,13,13,0,0,0,0,0,0],"split_type":[0,0,0,0,0,0,0,0,0,0,0,0,0],"sum_hessian":[2.925424E3,1.7278313E2,2.7526409E3,6.3544216E0,1.664287E2,6.2073816E2,2.1319026E3,1.52788E2,1.3640707E1,5.4953436E2,7.120381E1,1.2205735E3,9.1132916E2],"tree_param":{"num_deleted":"0","num_feature":"17","num_nodes":"13","size_leaf_vector":"1"}},{"base_weights":[1.1036143E-2,-2.578629E-1,1.2876683E-1,-1.2826791E-1,-6.250213E-1,3.453035E-1,3.9545793E-2,-6.9560823E-3,1.84804E-4,-1.2233797E-2,1.46886725E-2,7.943124E-3,1.2804974E-3,-2.3855693E-5,7.748182E-3],"categories":[],"categories_nodes":[],"categories_segments":[],"categories_sizes":[],"default_left":[0,0,0,0,0,0,0,0,0,0,0,0,0,0,0],"id":51,"left_children":[1,3,5,7,9,11,13,-1,-1,-1,-1,-1,-1,-1,-1],"loss_changes":[9.258802E1,4.1744427E1,3.909557E1,2.6367985E1,3.501802E1,1.9596832E1,2.5159595E1,0E0,0E0,0E0,0E0,0E0,0E0,0E0,0E0],"parents":[2147483647,0,0,1,1,2,2,3,3,4,4,5,5,6,6],"right_children":[2,4,6,8,10,12,14,-1,-1,-1,-1,-1,-1,-1,-1],"split_conditions":[1.4041627E-2,-1.7766472E-2,-2.9973045E-1,5.4065E1,4.5207242E2,3.590772E-2,2.5182626E-1,-6.9560823E-3,1.84804E-4,-1.2233797E-2,1.46886725E-2,7.943124E-3,1.2804974E-3,-2.3855693E-5,7.748182E-3],"split_indices":[9,10,10,1,2,9,16,0,0,0,0,0,0,0,0],"split_type":[0,0,0,0,0,0,0,0,0,0,0,0,0,0,0],"sum_hessian":[2.9250632E3,8.885756E2,2.0364875E3,6.5921466E2,2.29361E2,5.911456E2,1.4453419E3,2.1775237E2,4.4146228E2,2.1596498E2,1.33960085E1,4.012229E2,1.8992271E2,1.3163647E3,1.2897722E2],"tree_param":{"num_deleted":"0","num_feature":"17","num_nodes":"15","size_leaf_vector":"1"}},{"base_weights":[-1.1082159E-2,-3.333271E-1,7.684658E-2,-1.6825268E-1,-6.144889E-1,3.1084913E-1,-3.891256E-3,-8.314374E-3,8.7813626E-4,-1.4536282E-2,3.91554E-3,-8.466142E-3,6.189096E-3,3.0442656E-3,-1.569114E-3],"categories":[],"categories_nodes":[],"categories_segments":[],"categories_sizes":[],"default_left":[0,0,0,0,0,0,0,0,0,0,0,0,0,0,0],"id":52,"left_children":[1,3,5,7,9,11,13,-1,-1,-1,-1,-1,-1,-1,-1],"loss_changes":[8.341624E1,2.8671143E1,4.3784172E1,2.8964417E1,4.903672E1,2.7064575E1,2.809361E1,0E0,0E0,0E0,0E0,0E0,0E0,0E0,0E0],"parents":[2147483647,0,0,1,1,2,2,3,3,4,4,5,5,6,6],"right_children":[2,4,6,8,10,12,14,-1,-1,-1,-1,-1,-1,-1,-1],"split_conditions":[1.2318682E-2,2.1524284E0,-2.9973045E-1,5.0264328E1,6.4218535E0,2.205664E1,9.850587E-2,-8.314374E-3,8.7813626E-4,-1.4536282E-2,3.91554E-3,-8.466142E-3,6.189096E-3,3.0442656E-3,-1.569114E-3],"split_indices":[9,13,10,7,13,11,16,0,0,0,0,0,0,0,0],"split_type":[0,0,0,0,0,0,0,0,0,0,0,0,0,0,0],"sum_hessian":[2.9358357E3,6.3029675E2,2.3055388E3,3.9974963E2,2.3054712E2,5.927051E2,1.7128337E3,1.62331E2,2.3741864E2,1.7909665E2,5.145047E1,3.678515E1,5.559199E2,5.5539056E2,1.1574432E3],"tree_param":{"num_deleted":"0","num_feature":"17","num_nodes":"15","size_leaf_vector":"1"}},{"base_weights":[2.2670532E-2,-3.896046E-1,9.592643E-2,-1.1326314E0,-3.0971703E-1,2.65243E-1,-1.9494727E-2,-7.183294E-3,-2.2268426E-2,-1.631828E-2,-3.4041163E-3,-7.6911934E-3,5.058748E-3,4.3995907E-3,-1.4775924E-3],"categories":[],"categories_nodes":[],"categories_segments":[],"categories_sizes":[],"default_left":[0,0,0,0,0,0,0,0,0,0,0,0,0,0,0],"id":53,"left_children":[1,3,5,7,9,11,13,-1,-1,-1,-1,-1,-1,-1,-1],"loss_changes":[8.960446E1,2.5198822E1,4.9529594E1,3.7843513E0,2.7840656E1,2.5565971E1,2.8522812E1,0E0,0E0,0E0,0E0,0E0,0E0,0E0,0E0],"parents":[2147483647,0,0,1,1,2,2,3,3,4,4,5,5,6,6],"right_children":[2,4,6,8,10,12,14,-1,-1,-1,-1,-1,-1,-1,-1],"split_conditions":[1.1136401E-2,6.611126E-3,-2.1407121E-1,1.6367021E0,3.7835613E1,1.5910081E1,4.1203888E1,-7.183294E-3,-2.2268426E-2,-1.631828E-2,-3.4041163E-3,-7.6911934E-3,5.058748E-3,4.3995907E-3,-1.4775924E-3],"split_indices":[9,9,10,12,15,7,1,0,0,0,0,0,0,0,0],"split_type":[0,0,0,0,0,0,0,0,0,0,0,0,0,0,0],"sum_hessian":[2.9708086E3,4.4613278E2,2.5246758E3,4.1067787E1,4.05065E2,1.025137E3,1.4995387E3,1.0092535E1,3.0975252E1,5.5059452E1,3.5000552E2,4.5295742E1,9.798413E2,2.9052786E2,1.2090109E3],"tree_param":{"num_deleted":"0","num_feature":"17","num_nodes":"15","size_leaf_vector":"1"}},{"base_weights":[1.5810251E-2,3.235043E-1,-6.4404845E-2,2.5566766E-1,8.365021E-1,-1.0628319E-1,3.0949688E-1,1.13816E-3,6.9082137E-3,2.0441705E-2,-1.9148624E-3,-6.5937435E-4,-7.2961836E-3,3.953109E-3,2.0305319E-2],"categories":[],"categories_nodes":[],"categories_segments":[],"categories_sizes":[],"default_left":[0,0,0,0,0,0,0,0,0,0,0,0,0,0,0],"id":54,"left_children":[1,3,5,7,9,11,13,-1,-1,-1,-1,-1,-1,-1,-1],"loss_changes":[7.2685974E1,2.023766E1,3.6369366E1,1.5294529E1,2.562442E1,4.5615627E1,1.4422125E1,0E0,0E0,0E0,0E0,0E0,0E0,0E0,0E0],"parents":[2147483647,0,0,1,1,2,2,3,3,4,4,5,5,6,6],"right_children":[2,4,6,8,10,12,14,-1,-1,-1,-1,-1,-1,-1,-1],"split_conditions":[-2.9695684E-1,2.4783025E0,1.153667E8,5.3923E7,8.796483E0,-2.0674204E-2,6.47649E0,1.13816E-3,6.9082137E-3,2.0441705E-2,-1.9148624E-3,-6.5937435E-4,-7.2961836E-3,3.953109E-3,2.0305319E-2],"split_indices":[10,12,4,4,13,10,12,0,0,0,0,0,0,0,0],"split_type":[0,0,0,0,0,0,0,0,0,0,0,0,0,0,0],"sum_hessian":[2.9359065E3,6.081146E2,2.3277917E3,5.3971924E2,6.8395386E1,2.0956477E3,2.3214409E2,2.4522064E2,2.9449863E2,4.9328632E1,1.9066751E1,1.7401627E3,3.5548502E2,2.1609915E2,1.6044937E1],"tree_param":{"num_deleted":"0","num_feature":"17","num_nodes":"15","size_leaf_vector":"1"}},{"base_weights":[-8.520392E-3,5.8609627E-2,-4.5202208E-1,2.803194E-1,-1.3650789E-2,-6.918691E-1,1.3466005E-1,3.4495534E-3,1.3821209E-2,4.1253146E-4,-5.033018E-3,-1.7205007E-2,-8.44614E-3,1.5086536E-2,-3.9489353E-3],"categories":[],"categories_nodes":[],"categories_segments":[],"categories_sizes":[],"default_left":[0,0,0,0,0,0,0,0,0,0,0,0,0,0,0],"id":55,"left_children":[1,3,5,7,9,11,13,-1,-1,-1,-1,-1,-1,-1,-1],"loss_changes":[8.730857E1,4.084579E1,5.474301E1,2.4744831E1,2.0927198E1,1.5646149E1,3.203312E1,0E0,0E0,0E0,0E0,0E0,0E0,0E0,0E0],"parents":[2147483647,0,0,1,1,2,2,3,3,4,4,5,5,6,6],"right_children":[2,4,6,8,10,12,14,-1,-1,-1,-1,-1,-1,-1,-1],"split_conditions":[-1.8733377E-2,-2.893808E-1,1.4107439E-1,2.104435E0,3.9064786E2,5.8578078E-2,9.043133E-1,3.4495534E-3,1.3821209E-2,4.1253146E-4,-5.033018E-3,-1.7205007E-2,-8.44614E-3,1.5086536E-2,-3.9489353E-3],"split_indices":[10,10,16,13,14,16,13,0,0,0,0,0,0,0,0],"split_type":[0,0,0,0,0,0,0,0,0,0,0,0,0,0,0],"sum_hessian":[2.9216685E3,2.5371216E3,3.8454678E2,6.251051E2,1.9120166E3,2.736154E2,1.10931404E2,5.502991E2,7.480598E1,1.6851278E3,2.2688878E2,9.786382E1,1.7575157E2,3.6321846E1,7.460956E1],"tree_param":{"num_deleted":"0","num_feature":"17","num_nodes":"15","size_leaf_vector":"1"}},{"base_weights":[3.5555942E-3,-4.1345188E-1,6.5943986E-2,7.652845E-2,-5.391209E-1,2.8790063E-1,-5.676168E-3,-1.0636356E-2,4.359864E-3,-3.275186E-3,-1.3863031E-2,-4.0995805E-3,5.5101234E-3,-6.596043E-4,5.2514444E-3],"categories":[],"categories_nodes":[],"categories_segments":[],"categories_sizes":[],"default_left":[0,0,0,0,0,0,0,0,0,0,0,0,0,0,0],"id":56,"left_children":[1,3,5,7,9,11,13,-1,-1,-1,-1,-1,-1,-1,-1],"loss_changes":[7.608036E1,2.377246E1,4.076918E1,9.899285E0,2.8749588E1,1.2941952E1,2.0247513E1,0E0,0E0,0E0,0E0,0E0,0E0,0E0,0E0],"parents":[2147483647,0,0,1,1,2,2,3,3,4,4,5,5,6,6],"right_children":[2,4,6,8,10,12,14,-1,-1,-1,-1,-1,-1,-1,-1],"split_conditions":[1.05672935E-2,-7.107974E-3,-2.915599E-1,3.4237194E1,2.889304E2,2.205664E1,1.344733E8,-1.0636356E-2,4.359864E-3,-3.275186E-3,-1.3863031E-2,-4.0995805E-3,5.5101234E-3,-6.596043E-4,5.2514444E-3],"split_indices":[9,8,10,11,3,11,4,0,0,0,0,0,0,0,0],"split_type":[0,0,0,0,0,0,0,0,0,0,0,0,0,0,0],"sum_hessian":[2.930869E3,3.7921747E2,2.5516516E3,7.6421074E1,3.0279642E2,6.2392267E2,1.9277289E3,1.4323218E1,6.209786E1,1.3814966E2,1.6464674E2,4.07017E1,5.8322095E2,1.7466421E3,1.8108673E2],"tree_param":{"num_deleted":"0","num_feature":"17","num_nodes":"15","size_leaf_vector":"1"}},{"base_weights":[-2.5255177E-3,-7.036356E-2,2.7006665E-1,-1.5360381E-3,-3.3819497E-1,3.029433E-1,-6.8620175E-1,-6.260602E-3,5.55126E-4,-1.1968303E-2,8.39008E-5,1.9281438E-2,4.6603554E-3,-2.5202869E-2,5.043516E-3],"categories":[],"categories_nodes":[],"categories_segments":[],"categories_sizes":[],"default_left":[0,0,0,0,0,0,0,0,0,0,0,0,0,0,0],"id":57,"left_children":[1,3,5,7,9,11,13,-1,-1,-1,-1,-1,-1,-1,-1],"loss_changes":[5.349681E1,4.2617397E1,1.8087315E1,2.379122E1,6.0700237E1,1.1274345E1,1.6252464E1,0E0,0E0,0E0,0E0,0E0,0E0,0E0,0E0],"parents":[2147483647,0,0,1,1,2,2,3,3,4,4,5,5,6,6],"right_children":[2,4,6,8,10,12,14,-1,-1,-1,-1,-1,-1,-1,-1],"split_conditions":[8.62139E7,3.2632703E2,4.139656E2,1.6348225E1,3.69948E2,1.3041121E1,1.28682E8,-6.260602E-3,5.55126E-4,-1.1968303E-2,8.39008E-5,1.9281438E-2,4.6603554E-3,-2.5202869E-2,5.043516E-3],"split_indices":[4,3,5,15,7,5,4,0,0,0,0,0,0,0,0],"split_type":[0,0,0,0,0,0,0,0,0,0,0,0,0,0,0],"sum_hessian":[2.8978289E3,2.3229878E3,5.7484125E2,1.8509362E3,4.7205148E2,5.571468E2,1.769445E1,1.584995E2,1.6924368E3,2.27203E2,2.4484848E2,1.5036351E1,5.421105E2,9.776904E0,7.9175453E0],"tree_param":{"num_deleted":"0","num_feature":"17","num_nodes":"15","size_leaf_vector":"1"}},{"base_weights":[-1.2757408E-2,-2.5595433E-1,9.412725E-2,-2.0620262E-2,-2.092957E-1,3.0591556E-1,2.4862364E-2,-8.461899E-3,-1.7602534E-3,5.93341E-3,-1.1521198E-2,6.290048E-4,-2.0785388E-2],"categories":[],"categories_nodes":[],"categories_segments":[],"categories_sizes":[],"default_left":[0,0,0,0,0,0,0,0,0,0,0,0,0],"id":58,"left_children":[1,3,5,-1,7,9,11,-1,-1,-1,-1,-1,-1],"loss_changes":[7.4662384E1,3.830998E1,2.8974602E1,0E0,2.5274284E1,2.2072674E1,2.2697678E1,0E0,0E0,0E0,0E0,0E0,0E0],"parents":[2147483647,0,0,1,1,2,2,4,4,5,5,6,6],"right_children":[2,4,6,-1,8,10,12,-1,-1,-1,-1,-1,-1],"split_conditions":[1.4041627E-2,6.611126E-3,-3.215406E-1,-2.0620262E-2,5.0264328E1,2.7679007E2,5.0901584E2,-8.461899E-3,-1.7602534E-3,5.93341E-3,-1.1521198E-2,6.290048E-4,-2.0785388E-2],"split_indices":[9,9,10,0,7,6,1,0,0,0,0,0,0],"split_type":[0,0,0,0,0,0,0,0,0,0,0,0,0],"sum_hessian":[2.8660017E3,8.764434E2,1.9895583E3,3.84325E1,8.380109E2,4.8701865E2,1.5025398E3,2.1881294E2,6.1919794E2,4.668595E2,2.0159159E1,1.4894498E3,1.30899E1],"tree_param":{"num_deleted":"0","num_feature":"17","num_nodes":"13","size_leaf_vector":"1"}},{"base_weights":[9.869396E-3,9.834133E-2,-2.1758641E-1,-9.977712E-2,1.9386359E-1,-9.206691E-1,-1.5586941E-1,-2.5683776E-3,1.5531929E-2,9.832518E-3,2.1445341E-3,-1.8839622E-2,1.0002496E-2,7.0096254E-3,-3.5823097E-3],"categories":[],"categories_nodes":[],"categories_segments":[],"categories_sizes":[],"default_left":[0,0,0,0,0,0,0,0,0,0,0,0,0,0,0],"id":59,"left_children":[1,3,5,7,9,11,13,-1,-1,-1,-1,-1,-1,-1,-1],"loss_changes":[5.891751E1,4.006713E1,3.466004E1,3.6301857E1,3.652878E1,2.032449E1,2.4280499E1,0E0,0E0,0E0,0E0,0E0,0E0,0E0,0E0],"parents":[2147483647,0,0,1,1,2,2,3,3,4,4,5,5,6,6],"right_children":[2,4,6,8,10,12,14,-1,-1,-1,-1,-1,-1,-1,-1],"split_conditions":[2.5485945E2,1.6157119E-2,7.318482E-3,2.5491414E2,9.9098705E-2,6.320585E0,-8.35898E0,-2.5683776E-3,1.5531929E-2,9.832518E-3,2.1445341E-3,-1.8839622E-2,1.0002496E-2,7.0096254E-3,-3.5823097E-3],"split_indices":[15,9,9,0,16,12,12,0,0,0,0,0,0,0,0],"split_type":[0,0,0,0,0,0,0,0,0,0,0,0,0,0,0],"sum_hessian":[2.929411E3,2.1116194E3,8.177916E2,6.84644E2,1.4269752E3,6.3865314E1,7.5392633E2,6.5271967E2,3.1924362E1,2.0653851E2,1.2204368E3,5.720496E1,6.660354E0,6.6035416E1,6.878909E2],"tree_param":{"num_deleted":"0","num_feature":"17","num_nodes":"15","size_leaf_vector":"1"}},{"base_weights":[-5.6491685E-3,-3.9041668E-1,5.2382205E-2,1.1479801E-1,-5.184683E-1,2.836937E-1,-1.9148555E-2,4.51418E-3,-1.2540856E-2,1.5253379E-2,-9.705362E-3,3.6628214E-3,1.3809108E-2,-8.9252915E-4,4.4573657E-3],"categories":[],"categories_nodes":[],"categories_segments":[],"categories_sizes":[],"default_left":[0,0,0,0,0,0,0,0,0,0,0,0,0,0,0],"id":60,"left_children":[1,3,5,7,9,11,13,-1,-1,-1,-1,-1,-1,-1,-1],"loss_changes":[6.555151E1,2.523676E1,4.222285E1,1.008526E1,2.5174858E1,2.0582283E1,1.8408577E1,0E0,0E0,0E0,0E0,0E0,0E0,0E0,0E0],"parents":[2147483647,0,0,1,1,2,2,3,3,4,4,5,5,6,6],"right_children":[2,4,6,8,10,12,14,-1,-1,-1,-1,-1,-1,-1,-1],"split_conditions":[1.05672935E-2,-7.107974E-3,-2.9695684E-1,4.0644436E0,-1.9824561E0,2.1524284E0,1.214346E8,4.51418E-3,-1.2540856E-2,1.5253379E-2,-9.705362E-3,3.6628214E-3,1.3809108E-2,-8.9252915E-4,4.4573657E-3],"split_indices":[9,8,10,13,13,13,4,0,0,0,0,0,0,0,0],"split_type":[0,0,0,0,0,0,0,0,0,0,0,0,0,0,0],"sum_hessian":[2.9235845E3,3.838057E2,2.5397788E3,7.658599E1,3.072197E2,6.012915E2,1.9384872E3,6.632745E1,1.0258534E1,1.0661216E1,2.9655847E2,5.371115E2,6.4179955E1,1.7350964E3,2.033908E2],"tree_param":{"num_deleted":"0","num_feature":"17","num_nodes":"15","size_leaf_vector":"1"}},{"base_weights":[3.8170628E-4,6.902452E-2,-3.1261218E-1,2.828705E-1,-2.02725E-3,1.9854784E-1,-5.0022686E-1,3.496142E-3,1.08055305E-2,8.534322E-4,-2.9899918E-3,6.4529157E-3,-1.0724875E-2,-1.15040215E-2,8.056908E-4],"categories":[],"categories_nodes":[],"categories_segments":[],"categories_sizes":[],"default_left":[0,0,0,0,0,0,0,0,0,0,0,0,0,0,0],"id":61,"left_children":[1,3,5,7,9,11,13,-1,-1,-1,-1,-1,-1,-1,-1],"loss_changes":[6.2782288E1,3.6720573E1,5.0679688E1,1.5579956E1,1.6706083E1,2.1697332E1,3.876837E1,0E0,0E0,0E0,0E0,0E0,0E0,0E0,0E0],"parents":[2147483647,0,0,1,1,2,2,3,3,4,4,5,5,6,6],"right_children":[2,4,6,8,10,12,14,-1,-1,-1,-1,-1,-1,-1,-1],"split_conditions":[3.4664197E2,-2.9695684E-1,-1.6422147E-1,2.415224E2,-3.911387E-2,4.6629202E2,4.185557E2,3.496142E-3,1.08055305E-2,8.534322E-4,-2.9899918E-3,6.4529157E-3,-1.0724875E-2,-1.15040215E-2,8.056908E-4],"split_indices":[14,10,10,14,10,5,6,0,0,0,0,0,0,0,0],"split_type":[0,0,0,0,0,0,0,0,0,0,0,0,0,0,0],"sum_hessian":[2.9274346E3,2.403348E3,5.2408673E2,6.0087054E2,1.8024773E3,1.3974686E2,3.843399E2,4.9880115E2,1.020694E2,1.3838961E3,4.185811E2,1.15661514E2,2.4085335E1,2.8945975E2,9.488015E1],"tree_param":{"num_deleted":"0","num_feature":"17","num_nodes":"15","size_leaf_vector":"1"}},{"base_weights":[4.7069085E-3,-2.2549169E-1,1.1063664E-1,3.313811E-1,-2.7579618E-1,1.6900721E-1,-1.5576434E-1,1.1216507E-2,-1.2200017E-2,-1.9132705E-2,-3.920493E-3,7.153531E-3,1.6590512E-3,-1.8282043E-2,-1.2749361E-3],"categories":[],"categories_nodes":[],"categories_segments":[],"categories_sizes":[],"default_left":[0,0,0,0,0,0,0,0,0,0,0,0,0,0,0],"id":62,"left_children":[1,3,5,7,9,11,13,-1,-1,-1,-1,-1,-1,-1,-1],"loss_changes":[7.131056E1,2.585558E1,3.1244728E1,2.7089214E1,3.0375458E1,2.9316315E1,2.5868515E1,0E0,0E0,0E0,0E0,0E0,0E0,0E0,0E0],"parents":[2147483647,0,0,1,1,2,2,3,3,4,4,5,5,6,6],"right_children":[2,4,6,8,10,12,14,-1,-1,-1,-1,-1,-1,-1,-1],"split_conditions":[1.4176527E-2,-1.442858E0,2.5668314E2,6.853702E-3,6.611126E-3,1.0370059E-1,2.6506982E2,1.1216507E-2,-1.2200017E-2,-1.9132705E-2,-3.920493E-3,7.153531E-3,1.6590512E-3,-1.8282043E-2,-1.2749361E-3],"split_indices":[9,13,15,8,9,16,15,0,0,0,0,0,0,0,0],"split_type":[0,0,0,0,0,0,0,0,0,0,0,0,0,0,0],"sum_hessian":[2.925225E3,9.1950433E2,2.0057207E3,7.4569496E1,8.449348E2,1.6476132E3,3.581075E2,5.7454414E1,1.711508E1,3.869229E1,8.0624255E2,3.5460825E2,1.2930049E3,2.6734783E1,3.3137274E2],"tree_param":{"num_deleted":"0","num_feature":"17","num_nodes":"15","size_leaf_vector":"1"}},{"base_weights":[2.8583347E-3,-5.765241E-1,3.770743E-2,1.9884055E-2,-6.674644E-1,1.6896142E-1,-6.1682295E-2,7.3032314E-3,-1.2459998E-2,1.08512165E-2,2.2397495E-3,2.3951367E-4,-4.880009E-3],"categories":[],"categories_nodes":[],"categories_segments":[],"categories_sizes":[],"default_left":[0,0,0,0,0,0,0,0,0,0,0,0,0],"id":63,"left_children":[1,3,5,-1,7,9,11,-1,-1,-1,-1,-1,-1],"loss_changes":[5.8429653E1,2.673196E1,3.5922607E1,0E0,1.2796135E1,1.978955E1,2.7133263E1,0E0,0E0,0E0,0E0,0E0,0E0],"parents":[2147483647,0,0,1,1,2,2,4,4,5,5,6,6],"right_children":[2,4,6,-1,8,10,12,-1,-1,-1,-1,-1,-1],"split_conditions":[8.821822E-3,-1.9824561E0,-1.8616839E-1,1.9884055E-2,1.5254E6,2.2629E6,3.1988663E2,7.3032314E-3,-1.2459998E-2,1.08512165E-2,2.2397495E-3,2.3951367E-4,-4.880009E-3],"split_indices":[9,13,10,0,4,4,2,0,0,0,0,0,0],"split_type":[0,0,0,0,0,0,0,0,0,0,0,0,0],"sum_hessian":[2.9092002E3,1.6298732E2,2.746213E3,7.0103436E0,1.5597697E2,1.1859404E3,1.5602726E3,8.516145E0,1.4746083E2,8.1638725E1,1.1043018E3,1.1686003E3,3.9167224E2],"tree_param":{"num_deleted":"0","num_feature":"17","num_nodes":"13","size_leaf_vector":"1"}},{"base_weights":[4.630751E-3,-2.062269E-1,1.0356123E-1,-9.632274E-2,-5.439173E-1,1.17382556E-1,-9.1072714E-1,-1.05457585E-2,-1.9317755E-4,-1.0921648E-2,1.8424261E-2,1.6077508E-3,1.6712328E-2,-1.8881399E-3,-1.9335454E-2],"categories":[],"categories_nodes":[],"categories_segments":[],"categories_sizes":[],"default_left":[0,0,0,0,0,0,0,0,0,0,0,0,0,0,0],"id":64,"left_children":[1,3,5,7,9,11,13,-1,-1,-1,-1,-1,-1,-1,-1],"loss_changes":[6.076406E1,3.4000904E1,2.7449875E1,3.1143803E1,3.8712456E1,3.7059677E1,3.9384785E0,0E0,0E0,0E0,0E0,0E0,0E0,0E0,0E0],"parents":[2147483647,0,0,1,1,2,2,3,3,4,4,5,5,6,6],"right_children":[2,4,6,8,10,12,14,-1,-1,-1,-1,-1,-1,-1,-1],"split_conditions":[1.4327198E-2,-1.618261E-2,4.4512817E2,1.6348225E1,4.5207242E2,3.9070786E2,9.119748E-2,-1.05457585E-2,-1.9317755E-4,-1.0921648E-2,1.8424261E-2,1.6077508E-3,1.6712328E-2,-1.8881399E-3,-1.9335454E-2],"split_indices":[9,10,15,15,2,15,16,0,0,0,0,0,0,0,0],"split_type":[0,0,0,0,0,0,0,0,0,0,0,0,0,0,0],"sum_hessian":[2.9138987E3,9.2802246E2,1.9858763E3,7.027216E2,2.2530084E2,1.9608038E3,2.5072548E1,9.5169426E1,6.075522E2,2.1294974E2,1.2351107E1,1.9142866E3,4.6517113E1,6.714856E0,1.835769E1],"tree_param":{"num_deleted":"0","num_feature":"17","num_nodes":"15","size_leaf_vector":"1"}},{"base_weights":[9.645666E-3,2.029132E-1,-1.0320904E-1,1.6749793E-1,8.6753875E-1,-2.299997E-2,-3.790714E-1,4.0117498E-3,-7.4004247E-3,2.1305213E-2,2.944478E-3,-7.0531823E-4,1.8384479E-2,-9.5377915E-4,-1.0409079E-2],"categories":[],"categories_nodes":[],"categories_segments":[],"categories_sizes":[],"default_left":[0,0,0,0,0,0,0,0,0,0,0,0,0,0,0],"id":65,"left_children":[1,3,5,7,9,11,13,-1,-1,-1,-1,-1,-1,-1,-1],"loss_changes":[6.4276634E1,2.4747353E1,4.0802536E1,4.4000946E1,1.3521297E1,2.9481445E1,3.1426453E1,0E0,0E0,0E0,0E0,0E0,0E0,0E0,0E0],"parents":[2147483647,0,0,1,1,2,2,3,3,4,4,5,5,6,6],"right_children":[2,4,6,8,10,12,14,-1,-1,-1,-1,-1,-1,-1,-1],"split_conditions":[-2.0455885E-1,3.0563177E2,3.4606348E2,2.7165414E2,1.3293551E-1,1.1927926E1,-1.579575E-3,4.0117498E-3,-7.4004247E-3,2.1305213E-2,2.944478E-3,-7.0531823E-4,1.8384479E-2,-9.5377915E-4,-1.0409079E-2],"split_indices":[10,15,0,6,16,12,8,0,0,0,0,0,0,0,0],"split_type":[0,0,0,0,0,0,0,0,0,0,0,0,0,0,0],"sum_hessian":[2.9417312E3,1.0863293E3,1.8554019E3,1.0336534E3,5.2675896E1,1.4402554E3,4.1514645E2,9.279351E2,1.0571834E2,3.2362835E1,2.0313059E1,1.4179779E3,2.2277414E1,1.7789018E2,2.3725627E2],"tree_param":{"num_deleted":"0","num_feature":"17","num_nodes":"15","size_leaf_vector":"1"}},{"base_weights":[5.8205826E-3,7.624428E-2,-2.8640267E-1,1.6223017E-2,3.0575687E-1,1.0184876E0,-3.6352557E-1,-6.945022E-3,9.4300567E-4,3.5360954E-3,1.1755951E-2,2.2113482E-2,-1.3428305E-4,-7.2010914E-3,6.2216786E-3],"categories":[],"categories_nodes":[],"categories_segments":[],"categories_sizes":[],"default_left":[0,0,0,0,0,0,0,0,0,0,0,0,0,0,0],"id":66,"left_children":[1,3,5,7,9,11,13,-1,-1,-1,-1,-1,-1,-1,-1],"loss_changes":[6.015317E1,3.2326828E1,5.705466E1,3.1609434E1,1.756757E1,1.0296185E1,2.5028389E1,0E0,0E0,0E0,0E0,0E0,0E0,0E0,0E0],"parents":[2147483647,0,0,1,1,2,2,3,3,4,4,5,5,6,6],"right_children":[2,4,6,8,10,12,14,-1,-1,-1,-1,-1,-1,-1,-1],"split_conditions":[3.2423123E2,8.757492E7,-2.1407121E-1,1.8044003E1,7.184576E1,1.7409118E-1,1.0418763E1,-6.945022E-3,9.4300567E-4,3.5360954E-3,1.1755951E-2,2.2113482E-2,-1.3428305E-4,-7.2010914E-3,6.2216786E-3],"split_indices":[3,4,10,6,11,16,12,0,0,0,0,0,0,0,0],"split_type":[0,0,0,0,0,0,0,0,0,0,0,0,0,0,0],"sum_hessian":[2.9274243E3,2.3614333E3,5.659909E2,1.8751427E3,4.862907E2,3.0340376E1,5.356506E2,1.5677051E2,1.7183722E3,3.929367E2,9.335399E1,2.388637E1,6.454006E0,4.9439062E2,4.1259937E1],"tree_param":{"num_deleted":"0","num_feature":"17","num_nodes":"15","size_leaf_vector":"1"}},{"base_weights":[-7.5018074E-4,-3.479757E-1,9.096967E-2,-2.7507376E-2,-5.318534E-1,2.8050195E-2,3.0362284E-1,-1.1420303E-2,1.7340087E-3,-5.172464E-3,-1.3320392E-2,3.2072575E-3,-7.752201E-4,7.6407404E-3,1.5879301E-3],"categories":[],"categories_nodes":[],"categories_segments":[],"categories_sizes":[],"default_left":[0,0,0,0,0,0,0,0,0,0,0,0,0,0,0],"id":67,"left_children":[1,3,5,7,9,11,13,-1,-1,-1,-1,-1,-1,-1,-1],"loss_changes":[9.3455536E1,3.576847E1,3.0753052E1,1.9582916E1,2.1538452E1,2.1561901E1,1.6027641E1,0E0,0E0,0E0,0E0,0E0,0E0,0E0,0E0],"parents":[2147483647,0,0,1,1,2,2,3,3,4,4,5,5,6,6],"right_children":[2,4,6,8,10,12,14,-1,-1,-1,-1,-1,-1,-1,-1],"split_conditions":[1.2318682E-2,-2.5444636E-3,8.88446E7,3.696415E1,1.6191969E0,9.9098705E-2,2.284087E-1,-1.1420303E-2,1.7340087E-3,-5.172464E-3,-1.3320392E-2,3.2072575E-3,-7.752201E-4,7.6407404E-3,1.5879301E-3],"split_indices":[9,8,4,7,13,16,13,0,0,0,0,0,0,0,0],"split_type":[0,0,0,0,0,0,0,0,0,0,0,0,0,0,0],"sum_hessian":[2.926886E3,6.124411E2,2.314445E3,2.2507214E2,3.8736896E2,1.7893903E3,5.2505475E2,3.7675175E1,1.8739697E2,2.092036E2,1.7816534E2,5.632903E2,1.2261E3,3.0416898E2,2.2088576E2],"tree_param":{"num_deleted":"0","num_feature":"17","num_nodes":"15","size_leaf_vector":"1"}},{"base_weights":[-1.3336436E-2,-7.769031E-1,8.927083E-3,6.9718924E-3,-8.8549906E-1,-2.440482E-2,2.9632714E-1,-2.4871563E-3,-1.9001834E-2,-2.3920091E-3,5.418878E-4,7.881473E-3,6.402447E-4],"categories":[],"categories_nodes":[],"categories_segments":[],"categories_sizes":[],"default_left":[0,0,0,0,0,0,0,0,0,0,0,0,0],"id":68,"left_children":[1,3,5,-1,7,9,11,-1,-1,-1,-1,-1,-1],"loss_changes":[5.01345E1,1.1520599E1,2.7359169E1,0E0,1.2707031E1,1.692151E1,1.2737852E1,0E0,0E0,0E0,0E0,0E0,0E0],"parents":[2147483647,0,0,1,1,2,2,4,4,5,5,6,6],"right_children":[2,4,6,-1,8,10,12,-1,-1,-1,-1,-1,-1],"split_conditions":[7.318482E-3,-1.0538746E-2,1.466914E8,6.9718924E-3,2.7599014E2,1.4176527E-2,3.590772E-2,-2.4871563E-3,-1.9001834E-2,-2.3920091E-3,5.418878E-4,7.881473E-3,6.402447E-4],"split_indices":[9,8,4,0,0,9,9,0,0,0,0,0,0],"split_type":[0,0,0,0,0,0,0,0,0,0,0,0,0],"sum_hessian":[2.9176318E3,8.2424286E1,2.8352075E3,6.1192546E0,7.630503E1,2.5394155E3,2.9579193E2,1.98657E1,5.643933E1,8.2880304E2,1.7106125E3,1.7605226E2,1.19739655E2],"tree_param":{"num_deleted":"0","num_feature":"17","num_nodes":"13","size_leaf_vector":"1"}},{"base_weights":[1.4198976E-2,-2.1511011E-1,1.1248177E-1,1.3044623E-2,-3.6098906E-1,5.311698E-2,2.8930995E-1,-9.509239E-3,2.3001584E-3,3.2082284E-3,-8.031853E-3,4.400446E-3,-2.678857E-4,1.2051228E-2,3.140003E-3],"categories":[],"categories_nodes":[],"categories_segments":[],"categories_sizes":[],"default_left":[0,0,0,0,0,0,0,0,0,0,0,0,0,0,0],"id":69,"left_children":[1,3,5,7,9,11,13,-1,-1,-1,-1,-1,-1,-1,-1],"loss_changes":[6.600689E1,2.9444782E1,2.1318981E1,2.4070784E1,3.430021E1,2.2253038E1,2.1764355E1,0E0,0E0,0E0,0E0,0E0,0E0,0E0,0E0],"parents":[2147483647,0,0,1,1,2,2,3,3,4,4,5,5,6,6],"right_children":[2,4,6,8,10,12,14,-1,-1,-1,-1,-1,-1,-1,-1],"split_conditions":[1.4041627E-2,3.55668E-1,8.757492E7,9.23803E-3,-9.063266E-3,9.850587E-2,-3.1854649E0,-9.509239E-3,2.3001584E-3,3.2082284E-3,-8.031853E-3,4.400446E-3,-2.678857E-4,1.2051228E-2,3.140003E-3],"split_indices":[9,12,4,9,8,16,13,0,0,0,0,0,0,0,0],"split_type":[0,0,0,0,0,0,0,0,0,0,0,0,0,0,0],"sum_hessian":[2.9294927E3,8.764715E2,2.053021E3,3.4046518E2,5.3600635E2,1.540913E3,5.121081E2,5.8312695E1,2.821525E2,9.135244E1,4.446539E2,3.8595203E2,1.1549609E3,9.7605286E1,4.1450278E2],"tree_param":{"num_deleted":"0","num_feature":"17","num_nodes":"15","size_leaf_vector":"1"}},{"base_weights":[-9.0800785E-4,2.603391E-1,-6.9353975E-2,2.04067E-1,7.1260697E-1,-5.2655023E-1,-3.357882E-2,3.9631254E-3,-1.5938153E-2,2.1964565E-2,-1.5816246E-3,1.4737193E-2,-1.0106306E-2,-1.079143E-3,4.9720183E-3],"categories":[],"categories_nodes":[],"categories_segments":[],"categories_sizes":[],"default_left":[0,0,0,0,0,0,0,0,0,0,0,0,0,0,0],"id":70,"left_children":[1,3,5,7,9,11,13,-1,-1,-1,-1,-1,-1,-1,-1],"loss_changes":[5.2105206E1,1.4611607E1,3.7500008E1,1.8860872E1,3.1856228E1,1.7262707E1,2.1299667E1,0E0,0E0,0E0,0E0,0E0,0E0,0E0,0E0],"parents":[2147483647,0,0,1,1,2,2,3,3,4,4,5,5,6,6],"right_children":[2,4,6,8,10,12,14,-1,-1,-1,-1,-1,-1,-1,-1],"split_conditions":[-2.9695684E-1,3.1698585E0,8.821822E-3,6.354571E-2,8.468716E0,-1.9352709E0,1.344733E8,3.9631254E-3,-1.5938153E-2,2.1964565E-2,-1.5816246E-3,1.4737193E-2,-1.0106306E-2,-1.079143E-3,4.9720183E-3],"split_indices":[10,12,9,9,12,12,4,0,0,0,0,0,0,0,0],"split_type":[0,0,0,0,0,0,0,0,0,0,0,0,0,0,0],"sum_hessian":[2.918766E3,6.032874E2,2.3154788E3,5.392838E2,6.400359E1,1.6557298E2,2.1499058E3,5.266538E2,1.2630012E1,3.7067844E1,2.6935753E1,7.065141E0,1.5850784E2,1.9705286E3,1.7937727E2],"tree_param":{"num_deleted":"0","num_feature":"17","num_nodes":"15","size_leaf_vector":"1"}},{"base_weights":[4.540358E-3,2.6003546E-1,-6.2481094E-2,1.8626189E-1,8.161108E-1,-8.5716665E-1,-4.253312E-2,3.7058403E-3,-1.2297812E-2,2.0005869E-2,-6.1235036E-4,-3.0256696E-3,-2.0381741E-2,3.1897859E-3,-1.5261399E-3],"categories":[],"categories_nodes":[],"categories_segments":[],"categories_sizes":[],"default_left":[0,0,0,0,0,0,0,0,0,0,0,0,0,0,0],"id":71,"left_children":[1,3,5,7,9,11,13,-1,-1,-1,-1,-1,-1,-1,-1],"loss_changes":[5.0074253E1,2.4113636E1,3.5958786E1,1.628083E1,2.2792843E1,1.2060291E1,2.4946106E1,0E0,0E0,0E0,0E0,0E0,0E0,0E0,0E0],"parents":[2147483647,0,0,1,1,2,2,3,3,4,4,5,5,6,6],"right_children":[2,4,6,8,10,12,14,-1,-1,-1,-1,-1,-1,-1,-1],"split_conditions":[-2.9695684E-1,2.104435E0,6.920592E-3,6.354571E-2,8.796483E0,2.2357373E0,-1.598304E0,3.7058403E-3,-1.2297812E-2,2.0005869E-2,-6.1235036E-4,-3.0256696E-3,-2.0381741E-2,3.1897859E-3,-1.5261399E-3],"split_indices":[10,13,9,9,13,13,13,0,0,0,0,0,0,0,0],"split_type":[0,0,0,0,0,0,0,0,0,0,0,0,0,0,0],"sum_hessian":[2.9144414E3,6.070255E2,2.307416E3,5.383012E2,6.872436E1,5.4533978E1,2.252882E3,5.2091455E2,1.7386614E1,4.8188774E1,2.053558E1,1.9807468E1,3.472651E1,3.8319073E2,1.8696913E3],"tree_param":{"num_deleted":"0","num_feature":"17","num_nodes":"15","size_leaf_vector":"1"}},{"base_weights":[8.122406E-3,5.6903914E-2,-3.1248838E-1,4.509569E-1,3.1154403E-2,3.9681503E-1,-5.2563477E-1,-1.2219631E-2,8.975379E-3,-3.8107014E-3,1.0665742E-3,-1.9990052E-4,1.5357165E-2,-1.1310549E-2,-0E0],"categories":[],"categories_nodes":[],"categories_segments":[],"categories_sizes":[],"default_left":[0,0,0,0,0,0,0,0,0,0,0,0,0,0,0],"id":72,"left_children":[1,3,5,7,9,11,13,-1,-1,-1,-1,-1,-1,-1,-1],"loss_changes":[4.5615917E1,2.5462782E1,5.8497185E1,1.4958788E1,1.9577955E1,1.9234676E1,2.2882462E1,0E0,0E0,0E0,0E0,0E0,0E0,0E0,0E0],"parents":[2147483647,0,0,1,1,2,2,3,3,4,4,5,5,6,6],"right_children":[2,4,6,8,10,12,14,-1,-1,-1,-1,-1,-1,-1,-1],"split_conditions":[-1.8733377E-2,-5.5638707E-1,9.043133E-1,2.1183283E1,2.0394402E1,1.3766819E-1,6.722499E0,-1.2219631E-2,8.975379E-3,-3.8107014E-3,1.0665742E-3,-1.9990052E-4,1.5357165E-2,-1.1310549E-2,-0E0],"split_indices":[10,10,13,11,14,16,12,0,0,0,0,0,0,0,0],"split_type":[0,0,0,0,0,0,0,0,0,0,0,0,0,0,0],"sum_hessian":[2.9250679E3,2.5413826E3,3.836855E2,1.5316522E2,2.3882173E3,8.771461E1,2.9597086E2,8.755859E0,1.4440936E2,2.6174362E2,2.1264736E3,4.8718475E1,3.899613E1,2.3260577E2,6.3365086E1],"tree_param":{"num_deleted":"0","num_feature":"17","num_nodes":"15","size_leaf_vector":"1"}},{"base_weights":[-1.3915296E-2,-5.076778E-1,1.7305218E-2,5.1122826E-1,-5.979886E-1,1.3687764E-1,-7.188392E-2,2.0001054E-2,-1.5666945E-3,5.0772703E-3,-1.1564105E-2,2.4044572E-4,5.0978987E-3,8.323305E-5,-5.222E-3],"categories":[],"categories_nodes":[],"categories_segments":[],"categories_sizes":[],"default_left":[0,0,0,0,0,0,0,0,0,0,0,0,0,0,0],"id":73,"left_children":[1,3,5,7,9,11,13,-1,-1,-1,-1,-1,-1,-1,-1],"loss_changes":[4.4706474E1,1.6271778E1,2.8923386E1,6.566396E0,1.2988403E1,2.3283352E1,2.8448072E1,0E0,0E0,0E0,0E0,0E0,0E0,0E0,0E0],"parents":[2147483647,0,0,1,1,2,2,3,3,4,4,5,5,6,6],"right_children":[2,4,6,8,10,12,14,-1,-1,-1,-1,-1,-1,-1,-1],"split_conditions":[8.821822E-3,-9.5594156E-1,-1.8616839E-1,-8.9438476E-2,-1.0961655E-2,-1.2033452E-1,3.2423123E2,2.0001054E-2,-1.5666945E-3,5.0772703E-3,-1.1564105E-2,2.4044572E-4,5.0978987E-3,8.323305E-5,-5.222E-3],"split_indices":[9,12,10,10,8,12,3,0,0,0,0,0,0,0,0],"split_type":[0,0,0,0,0,0,0,0,0,0,0,0,0,0,0],"sum_hessian":[2.8772568E3,1.7135162E2,2.705905E3,1.2927607E1,1.5842401E2,1.15896E3,1.5469452E3,6.118544E0,6.8090625E0,1.3092492E1,1.4533153E2,6.681357E2,4.9082425E2,1.1676334E3,3.793118E2],"tree_param":{"num_deleted":"0","num_feature":"17","num_nodes":"15","size_leaf_vector":"1"}},{"base_weights":[4.580353E-4,1.741647E-1,-1.00253515E-1,1.3455169E-1,8.853399E-1,-1.0290762E0,-8.02626E-2,3.513372E-3,-7.2428687E-3,6.144427E-3,2.5468256E-2,-1.568186E-3,-2.0996025E-2,-2.0674786E-3,4.7046966E-3],"categories":[],"categories_nodes":[],"categories_segments":[],"categories_sizes":[],"default_left":[0,0,0,0,0,0,0,0,0,0,0,0,0,0,0],"id":74,"left_children":[1,3,5,7,9,11,13,-1,-1,-1,-1,-1,-1,-1,-1],"loss_changes":[5.1211327E1,2.949524E1,3.350098E1,4.232809E1,1.624105E1,6.66267E0,2.7406757E1,0E0,0E0,0E0,0E0,0E0,0E0,0E0,0E0],"parents":[2147483647,0,0,1,1,2,2,3,3,4,4,5,5,6,6],"right_children":[2,4,6,8,10,12,14,-1,-1,-1,-1,-1,-1,-1,-1],"split_conditions":[-2.0272337E-1,3.1763187E2,6.611126E-3,2.7165414E2,4.5270462E1,4.671861E1,1.214346E8,3.513372E-3,-7.2428687E-3,6.144427E-3,2.5468256E-2,-1.568186E-3,-2.0996025E-2,-2.0674786E-3,4.7046966E-3],"split_indices":[10,3,9,6,11,11,4,0,0,0,0,0,0,0,0],"split_type":[0,0,0,0,0,0,0,0,0,0,0,0,0,0,0],"sum_hessian":[2.9222766E3,1.0745898E3,1.8476869E3,1.02004034E3,5.454948E1,3.7036564E1,1.8106503E3,9.038822E2,1.16158134E2,3.1261082E1,2.3288399E1,7.791503E0,2.924506E1,1.622377E3,1.882733E2],"tree_param":{"num_deleted":"0","num_feature":"17","num_nodes":"15","size_leaf_vector":"1"}},{"base_weights":[-2.8224746E-3,-3.5327318E-1,4.849201E-2,-1.0281687E0,-2.6696235E-1,-3.247434E-2,1.7302482E-1,-4.776072E-3,-2.5546728E-2,2.1663907E-3,-8.4355185E-3,1.1036408E-2,-8.986906E-4,4.527821E-3,-5.7488383E-4],"categories":[],"categories_nodes":[],"categories_segments":[],"categories_sizes":[],"default_left":[0,0,0,0,0,0,0,0,0,0,0,0,0,0,0],"id":75,"left_children":[1,3,5,7,9,11,13,-1,-1,-1,-1,-1,-1,-1,-1],"loss_changes":[5.2618702E1,2.0615253E1,2.5719122E1,1.3209476E1,3.1054161E1,2.1562998E1,1.997882E1,0E0,0E0,0E0,0E0,0E0,0E0,0E0,0E0],"parents":[2147483647,0,0,1,1,2,2,3,3,4,4,5,5,6,6],"right_children":[2,4,6,8,10,12,14,-1,-1,-1,-1,-1,-1,-1,-1],"split_conditions":[1.05672935E-2,1.6754158E1,2.1177635E-2,1.5638989E1,2.8357806E2,1.53010025E1,3.5534397E-2,-4.776072E-3,-2.5546728E-2,2.1663907E-3,-8.4355185E-3,1.1036408E-2,-8.986906E-4,4.527821E-3,-5.7488383E-4],"split_indices":[9,5,9,7,1,7,9,0,0,0,0,0,0,0,0],"split_type":[0,0,0,0,0,0,0,0,0,0,0,0,0,0,0],"sum_hessian":[2.9125706E3,3.728057E2,2.539765E3,4.00109E1,3.3279477E2,1.5363807E3,1.00338416E3,1.7023325E1,2.2987572E1,1.2248911E2,2.1030566E2,4.3189087E1,1.4931917E3,6.892414E2,3.1414276E2],"tree_param":{"num_deleted":"0","num_feature":"17","num_nodes":"15","size_leaf_vector":"1"}},{"base_weights":[-2.8221277E-3,2.612479E-1,-5.7799835E-2,2.8615206E-1,-2.0419298E-2,-8.663464E-2,3.975363E-1,3.2594053E-3,1.6203472E-2,-6.0540263E-4,-6.5420363E-3,-1.0543515E-2,8.2977405E-3],"categories":[],"categories_nodes":[],"categories_segments":[],"categories_sizes":[],"default_left":[0,0,0,0,0,0,0,0,0,0,0,0,0],"id":76,"left_children":[1,3,5,7,-1,9,11,-1,-1,-1,-1,-1,-1],"loss_changes":[4.2035988E1,1.8038757E1,3.1425278E1,2.9843342E1,0E0,3.4314255E1,1.3929638E1,0E0,0E0,0E0,0E0,0E0,0E0],"parents":[2147483647,0,0,1,1,2,2,3,3,5,5,6,6],"right_children":[2,4,6,8,-1,10,12,-1,-1,-1,-1,-1,-1],"split_conditions":[-3.215406E-1,3.273481E2,2.4545766E-1,2.2566922E2,-2.0419298E-2,-1.618261E-2,-8.598734E0,3.2594053E-3,1.6203472E-2,-6.0540263E-4,-6.5420363E-3,-1.0543515E-2,8.2977405E-3],"split_indices":[10,14,16,5,0,10,13,0,0,0,0,0,0],"split_type":[0,0,0,0,0,0,0,0,0,0,0,0,0],"sum_hessian":[2.9024387E3,4.9733997E2,2.4050989E3,4.903933E2,6.946656E0,2.264087E3,1.4101183E2,4.330399E2,5.7353428E1,1.9402871E3,3.2379984E2,1.0759273E1,1.3025255E2],"tree_param":{"num_deleted":"0","num_feature":"17","num_nodes":"13","size_leaf_vector":"1"}},{"base_weights":[-3.085015E-4,-5.398053E-1,3.0058023E-2,-6.302295E-1,3.850093E-1,2.4821395E-1,-1.8225595E-2,3.7824458E-3,-1.1957038E-2,2.5221689E-2,-9.900112E-3,7.1037994E-3,-1.7183102E-3,-7.3846563E-4,5.9199887E-3],"categories":[],"categories_nodes":[],"categories_segments":[],"categories_sizes":[],"default_left":[0,0,0,0,0,0,0,0,0,0,0,0,0,0,0],"id":77,"left_children":[1,3,5,7,9,11,13,-1,-1,-1,-1,-1,-1,-1,-1],"loss_changes":[4.8178413E1,1.3545261E1,2.92658E1,1.0115055E1,1.668481E1,3.0683786E1,2.1113464E1,0E0,0E0,0E0,0E0,0E0,0E0,0E0,0E0],"parents":[2147483647,0,0,1,1,2,2,3,3,4,4,5,5,6,6],"right_children":[2,4,6,8,10,12,14,-1,-1,-1,-1,-1,-1,-1,-1],"split_conditions":[8.821822E-3,6.663118E0,-3.215406E-1,-4.6424344E-1,4.1316516E2,3.590772E-2,2.4545766E-1,3.7824458E-3,-1.1957038E-2,2.5221689E-2,-9.900112E-3,7.1037994E-3,-1.7183102E-3,-7.3846563E-4,5.9199887E-3],"split_indices":[9,13,10,13,1,9,16,0,0,0,0,0,0,0,0],"split_type":[0,0,0,0,0,0,0,0,0,0,0,0,0,0,0],"sum_hessian":[2.9179702E3,1.5564929E2,2.7623208E3,1.4276463E2,1.2884645E1,5.0222562E2,2.2600952E3,1.10887785E1,1.3167586E2,6.051914E0,6.8327312E0,3.3742288E2,1.6480272E2,2.1164531E3,1.4364218E2],"tree_param":{"num_deleted":"0","num_feature":"17","num_nodes":"15","size_leaf_vector":"1"}},{"base_weights":[3.6557703E-3,-5.8462524E-1,3.155801E-2,-6.82316E-1,9.006162E-3,-2.0934606E-2,2.3248313E-1,-2.9858835E-3,-1.6185882E-2,-2.4398943E-4,-2.4513189E-2,6.416455E-3,7.671494E-4],"categories":[],"categories_nodes":[],"categories_segments":[],"categories_sizes":[],"default_left":[0,0,0,0,0,0,0,0,0,0,0,0,0],"id":78,"left_children":[1,3,5,7,-1,9,11,-1,-1,-1,-1,-1,-1],"loss_changes":[4.7163586E1,1.4714027E1,2.9313063E1,1.5926804E1,0E0,1.9323042E1,1.5596411E1,0E0,0E0,0E0,0E0,0E0,0E0],"parents":[2147483647,0,0,1,1,2,2,3,3,5,5,6,6],"right_children":[2,4,6,8,-1,10,12,-1,-1,-1,-1,-1,-1],"split_conditions":[8.363773E-3,6.663118E0,8.62139E7,2.86711E2,9.006162E-3,5.222104E2,1.9227277E-1,-2.9858835E-3,-1.6185882E-2,-2.4398943E-4,-2.4513189E-2,6.416455E-3,7.671494E-4],"split_indices":[9,13,4,1,0,5,13,0,0,0,0,0,0],"split_type":[0,0,0,0,0,0,0,0,0,0,0,0,0],"sum_hessian":[2.8932498E3,1.2892299E2,2.7643267E3,1.1951263E2,9.410371E0,2.1899111E3,5.744154E2,4.378039E1,7.573223E1,2.1816355E3,8.275687E0,3.1833542E2,2.5608002E2],"tree_param":{"num_deleted":"0","num_feature":"17","num_nodes":"13","size_leaf_vector":"1"}},{"base_weights":[-1.0454073E-2,4.9757823E-2,-2.9142332E-1,3.649313E-2,8.1836736E-1,-4.432334E-1,6.4857595E-2,1.9971477E-2,4.7555898E-4,1.9493852E-2,-0E0,-4.578838E-3,-1.4826063E-2,2.6844365E-3,-2.3850212E-2],"categories":[],"categories_nodes":[],"categories_segments":[],"categories_sizes":[],"default_left":[0,0,0,0,0,0,0,0,0,0,0,0,0,0,0],"id":79,"left_children":[1,3,5,7,9,11,13,-1,-1,-1,-1,-1,-1,-1,-1],"loss_changes":[4.9226738E1,2.3733274E1,2.8072113E1,2.1555647E1,1.0570923E1,2.603772E1,2.0748049E1,0E0,0E0,0E0,0E0,0E0,0E0,0E0,0E0],"parents":[2147483647,0,0,1,1,2,2,3,3,4,4,5,5,6,6],"right_children":[2,4,6,8,10,12,14,-1,-1,-1,-1,-1,-1,-1,-1],"split_conditions":[3.4664197E2,3.262967E2,4.185557E2,1.3041121E1,1.8174045E-2,3.810732E2,5.222104E2,1.9971477E-2,4.7555898E-4,1.9493852E-2,-0E0,-4.578838E-3,-1.4826063E-2,2.6844365E-3,-2.3850212E-2],"split_indices":[14,6,6,5,9,5,5,0,0,0,0,0,0,0,0],"split_type":[0,0,0,0,0,0,0,0,0,0,0,0,0,0,0],"sum_hessian":[2.8982285E3,2.3855667E3,